genomestart 0
trait 1 0.02507062462297291 1.653922141742112 0.37632111026207965 0.8252738365488161 1.4754510166269752 1.5569660910546648 3.795441666048077 2.476594853100451
trait 2 0.02507062462297291 1.653922141742112 0.37632111026207965 0.8252738365488161 1.4754510166269752 1.5569660910546648 3.795441666048077 2.476594853100451
trait 3 0.02507062462297291 1.653922141742112 0.37632111026207965 0.8252738365488161 1.4754510166269752 1.5569660910546648 3.795441666048077 2.476594853100451
trait 4 0.02507062462297291 1.653922141742112 0.37632111026207965 0.8252738365488161 1.4754510166269752 1.5569660910546648 3.795441666048077 2.476594853100451
trait 5 0.02507062462297291 1.653922141742112 0.37632111026207965 0.8252738365488161 1.4754510166269752 1.5569660910546648 3.795441666048077 2.476594853100451
trait 6 0.02507062462297291 1.653922141742112 0.37632111026207965 0.8252738365488161 1.4754510166269752 1.5569660910546648 3.795441666048077 2.476594853100451
trait 7 0.02507062462297291 1.653922141742112 0.37632111026207965 0.8252738365488161 1.4754510166269752 1.5569660910546648 3.795441666048077 2.476594853100451
node 1 1 1 1 SigmoidSteepenedActivation
node 2 1 1 1 SigmoidSteepenedActivation
node 3 1 1 1 SigmoidSteepenedActivation
node 4 1 1 1 SigmoidSteepenedActivation
node 5 1 1 1 SigmoidSteepenedActivation
node 6 1 1 1 SigmoidSteepenedActivation
node 7 1 1 1 SigmoidSteepenedActivation
node 8 1 1 1 SigmoidSteepenedActivation
node 9 1 1 1 SigmoidSteepenedActivation
node 10 1 1 1 SigmoidSteepenedActivation
node 11 1 1 1 SigmoidSteepenedActivation
node 12 1 1 1 SigmoidSteepenedActivation
node 13 1 1 1 SigmoidSteepenedActivation
node 14 1 1 1 SigmoidSteepenedActivation
node 15 1 1 1 SigmoidSteepenedActivation
node 16 1 1 1 SigmoidSteepenedActivation
node 17 1 1 1 SigmoidSteepenedActivation
node 18 1 1 1 SigmoidSteepenedActivation
node 19 1 1 1 SigmoidSteepenedActivation
node 20 1 1 1 SigmoidSteepenedActivation
node 21 1 1 1 SigmoidSteepenedActivation
node 22 1 1 1 SigmoidSteepenedActivation
node 23 1 1 1 SigmoidSteepenedActivation
node 24 1 1 1 SigmoidSteepenedActivation
node 25 1 1 1 SigmoidSteepenedActivation
node 26 1 1 1 SigmoidSteepenedActivation
node 27 1 1 1 SigmoidSteepenedActivation
node 28 1 1 1 SigmoidSteepenedActivation
node 29 1 1 1 SigmoidSteepenedActivation
node 30 1 1 1 SigmoidSteepenedActivation
node 31 1 1 1 SigmoidSteepenedActivation
node 32 1 1 1 SigmoidSteepenedActivation
node 33 1 1 1 SigmoidSteepenedActivation
node 34 1 1 1 SigmoidSteepenedActivation
node 35 1 1 1 SigmoidSteepenedActivation
node 36 1 1 1 SigmoidSteepenedActivation
node 37 1 1 1 SigmoidSteepenedActivation
node 38 1 1 3 SigmoidSteepenedActivation
node 39 1 0 0 SigmoidSteepenedActivation
node 40 1 0 0 SigmoidSteepenedActivation
node 41 1 0 0 SigmoidSteepenedActivation
node 42 1 0 0 SigmoidSteepenedActivation
node 43 1 0 0 SigmoidSteepenedActivation
node 44 1 0 0 SigmoidSteepenedActivation
node 45 1 0 0 SigmoidSteepenedActivation
node 46 1 0 0 SigmoidSteepenedActivation
node 47 1 0 0 SigmoidSteepenedActivation
node 48 1 0 0 SigmoidSteepenedActivation
node 49 1 0 0 SigmoidSteepenedActivation
node 50 1 0 0 SigmoidSteepenedActivation
node 51 1 0 0 SigmoidSteepenedActivation
node 52 1 0 0 SigmoidSteepenedActivation
node 53 1 0 0 SigmoidSteepenedActivation
node 69 1 0 2 SigmoidSteepenedActivation
node 70 1 0 2 SigmoidSteepenedActivation
node 71 1 0 2 SigmoidSteepenedActivation
node 72 1 0 2 SigmoidSteepenedActivation
node 73 1 0 2 SigmoidSteepenedActivation
node 74 1 0 2 SigmoidSteepenedActivation
node 75 1 0 2 SigmoidSteepenedActivation
node 76 1 0 2 SigmoidSteepenedActivation
node 77 1 0 2 SigmoidSteepenedActivation
node 136 1 0 0 SigmoidBipolarActivation
node 183 1 0 0 TanhActivation
node 346 1 0 0 LinearAbsActivation
node 714 1 0 0 TanhActivation
node 856 1 0 0 SigmoidBipolarActivation
node 1205 1 0 0 SigmoidBipolarActivation
node 1681 1 0 0 SigmoidBipolarActivation
node 2346 1 0 0 LinearAbsActivation
node 3237 1 0 0 GaussianBipolarActivation
node 3360 1 0 0 SigmoidSteepenedActivation
node 3477 1 0 0 TanhActivation
node 4003 1 0 0 TanhActivation
node 4305 1 0 0 GaussianBipolarActivation
node 4443 1 0 0 TanhActivation
node 4548 1 0 0 GaussianBipolarActivation
node 4779 1 0 0 SigmoidBipolarActivation
node 4895 1 0 0 SigmoidBipolarActivation
node 5431 1 0 0 GaussianBipolarActivation
node 5475 1 0 0 TanhActivation
node 5742 1 0 0 SigmoidBipolarActivation
node 5901 1 0 0 TanhActivation
node 6047 1 0 0 TanhActivation
node 6130 1 0 0 SigmoidBipolarActivation
node 6175 1 0 0 TanhActivation
node 6348 1 0 0 LinearAbsActivation
node 6389 1 0 0 SigmoidBipolarActivation
node 6559 1 0 0 GaussianBipolarActivation
node 6642 1 0 0 LinearAbsActivation
node 6752 1 0 0 GaussianBipolarActivation
node 7237 1 0 0 GaussianBipolarActivation
node 7401 1 0 0 TanhActivation
node 8018 1 0 0 TanhActivation
node 8137 1 0 0 TanhActivation
node 8450 1 0 0 GaussianBipolarActivation
node 8569 1 0 0 GaussianBipolarActivation
node 8743 1 0 0 TanhActivation
node 9305 1 0 0 GaussianBipolarActivation
node 10140 1 0 0 SigmoidBipolarActivation
node 10428 1 0 0 GaussianBipolarActivation
node 10998 1 0 0 GaussianBipolarActivation
node 11336 1 0 0 GaussianBipolarActivation
node 12031 1 0 0 GaussianBipolarActivation
node 12283 1 0 0 TanhActivation
node 12346 1 0 0 TanhActivation
node 12642 1 0 0 TanhActivation
node 12988 1 0 0 TanhActivation
node 13325 1 0 0 SigmoidBipolarActivation
node 13648 1 0 0 GaussianBipolarActivation
node 14063 1 0 0 SigmoidBipolarActivation
node 14330 1 0 0 TanhActivation
node 14653 1 0 0 TanhActivation
node 14750 1 0 0 SigmoidBipolarActivation
node 14795 1 0 0 SigmoidBipolarActivation
node 15300 1 0 0 TanhActivation
node 15706 1 0 0 SigmoidBipolarActivation
node 15866 1 0 0 SigmoidBipolarActivation
node 16361 1 0 0 SigmoidBipolarActivation
node 16458 1 0 0 GaussianBipolarActivation
node 16788 1 0 0 GaussianBipolarActivation
node 16941 1 0 0 GaussianBipolarActivation
node 17374 1 0 0 LinearAbsActivation
node 17847 1 0 0 SigmoidBipolarActivation
node 18435 1 0 0 TanhActivation
node 18554 1 0 0 GaussianBipolarActivation
node 18900 1 0 0 TanhActivation
node 19008 1 0 0 GaussianBipolarActivation
node 19159 1 0 0 TanhActivation
node 19226 1 0 0 TanhActivation
node 19372 1 0 0 GaussianBipolarActivation
node 19577 1 0 0 GaussianBipolarActivation
node 19771 1 0 0 GaussianBipolarActivation
node 19946 1 0 0 GaussianBipolarActivation
node 20031 1 0 0 GaussianBipolarActivation
node 20352 1 0 0 TanhActivation
node 20864 1 0 0 SigmoidBipolarActivation
node 21010 1 0 0 TanhActivation
node 21063 1 0 0 GaussianBipolarActivation
node 21349 1 0 0 SigmoidBipolarActivation
node 21517 1 0 0 LinearAbsActivation
node 21982 1 0 0 TanhActivation
node 22540 1 0 0 TanhActivation
node 23680 1 0 0 SigmoidBipolarActivation
node 24179 1 0 0 TanhActivation
node 24360 1 0 0 SigmoidBipolarActivation
node 24755 1 0 0 GaussianBipolarActivation
node 24945 1 0 0 TanhActivation
node 25136 1 0 0 SigmoidBipolarActivation
node 25166 1 0 0 SigmoidSteepenedActivation
node 25335 1 0 0 SigmoidBipolarActivation
node 26037 1 0 0 GaussianBipolarActivation
node 26626 1 0 0 TanhActivation
node 27167 1 0 0 TanhActivation
node 27482 1 0 0 TanhActivation
node 27960 1 0 0 LinearAbsActivation
node 28151 1 0 0 TanhActivation
node 28409 1 0 0 GaussianBipolarActivation
node 28713 1 0 0 TanhActivation
node 28883 1 0 0 LinearAbsActivation
node 28994 1 0 0 SigmoidBipolarActivation
node 29418 1 0 0 GaussianBipolarActivation
node 29841 1 0 0 SigmoidBipolarActivation
node 30059 1 0 0 SigmoidBipolarActivation
node 30313 1 0 0 SigmoidSteepenedActivation
node 30680 1 0 0 LinearAbsActivation
node 31008 1 0 0 TanhActivation
node 31065 1 0 0 GaussianBipolarActivation
node 31293 1 0 0 LinearAbsActivation
node 31515 1 0 0 GaussianBipolarActivation
node 31668 1 0 0 LinearAbsActivation
node 31891 1 0 0 SigmoidBipolarActivation
node 32096 1 0 0 SigmoidBipolarActivation
node 32342 1 0 0 SigmoidBipolarActivation
node 32577 1 0 0 TanhActivation
node 32771 1 0 0 SigmoidBipolarActivation
node 32815 1 0 0 LinearAbsActivation
node 33258 1 0 0 SigmoidBipolarActivation
node 33542 1 0 0 SigmoidBipolarActivation
node 34127 1 0 0 LinearAbsActivation
node 34273 1 0 0 GaussianBipolarActivation
node 35127 1 0 0 GaussianBipolarActivation
node 35880 1 0 0 LinearAbsActivation
node 36194 1 0 0 SigmoidBipolarActivation
node 36304 1 0 0 SigmoidBipolarActivation
node 36353 1 0 0 SigmoidBipolarActivation
node 36411 1 0 0 TanhActivation
node 36465 1 0 0 SigmoidBipolarActivation
node 36737 1 0 0 TanhActivation
node 36937 1 0 0 SigmoidBipolarActivation
node 37578 1 0 0 TanhActivation
node 37980 1 0 0 SigmoidBipolarActivation
node 38092 1 0 0 TanhActivation
node 38298 1 0 0 SigmoidBipolarActivation
node 38372 1 0 0 SigmoidBipolarActivation
node 38892 1 0 0 TanhActivation
node 39084 1 0 0 GaussianBipolarActivation
node 39253 1 0 0 LinearAbsActivation
node 39731 1 0 0 LinearAbsActivation
node 40297 1 0 0 GaussianBipolarActivation
gene 1 5 39 -2.1723674396155577 false 2930 -2.1723674396155577 true
gene 1 8 39 5.286970309447331 false 2933 5.286970309447331 true
gene 1 18 39 -2.329942783771056 false 2943 -2.329942783771056 true
gene 1 23 39 2.8439504595152356 false 2948 2.8439504595152356 true
gene 1 24 39 1.128569234574015 false 2949 1.128569234574015 true
gene 1 25 39 7.611839851049277 false 2950 7.611839851049277 true
gene 1 27 39 -9.68927779443251 false 2952 -9.68927779443251 true
gene 1 28 39 -0.47606483150953327 false 2953 -0.47606483150953327 true
gene 1 30 39 -6.903134660399426 false 2955 -6.903134660399426 true
gene 1 32 39 4.059934316193826 false 2957 4.059934316193826 true
gene 1 38 39 10.291537164239745 false 2963 10.291537164239745 true
gene 1 48 39 13.025969417722276 true 2973 13.025969417722276 true
gene 1 50 39 -5.259338798594934 true 2975 -5.259338798594934 true
gene 1 51 39 10.287288037962899 true 2976 10.287288037962899 true
gene 1 52 39 0.9118633498870983 true 2977 0.9118633498870983 true
gene 1 73 39 0.5687046923019198 true 2998 0.5687046923019198 true
gene 1 75 39 -5.705385197329087 true 3000 -5.705385197329087 true
gene 1 77 39 -8.438243658444142 true 3002 -8.438243658444142 true
gene 1 1 40 -0.05544298312367468 false 3003 -0.05544298312367468 true
gene 1 2 40 -0.825361845083483 false 3004 -0.825361845083483 true
gene 1 4 40 3.263969788018059 false 3006 3.263969788018059 true
gene 1 5 40 -5.412307638392707 false 3007 -5.412307638392707 true
gene 1 10 40 4.332886218606455 false 3012 4.332886218606455 true
gene 1 13 40 4.655435125074379 false 3015 4.655435125074379 true
gene 1 14 40 -6.606425583163299 false 3016 -6.606425583163299 true
gene 1 19 40 -2.5075502724710703 false 3021 -2.5075502724710703 true
gene 1 20 40 -1.6764531829044904 false 3022 -1.6764531829044904 true
gene 1 21 40 7.119499572407414 false 3023 7.119499572407414 true
gene 1 22 40 -0.8414574202989491 false 3024 -0.8414574202989491 true
gene 1 28 40 -1.4845195291716382 false 3030 -1.4845195291716382 true
gene 1 34 40 -8.982773317073221 false 3036 -8.982773317073221 true
gene 1 36 40 -1.5013024300710862 false 3038 -1.5013024300710862 true
gene 1 37 40 -1.3240658947864343 false 3039 -1.3240658947864343 true
gene 1 40 40 -3.1833045396914663 true 3042 -3.1833045396914663 true
gene 1 53 40 -2.7223038733907963 true 3055 -2.7223038733907963 true
gene 1 69 40 1.7890803188852664 true 3071 1.7890803188852664 true
gene 1 75 40 -1.9653419009576247 true 3077 -1.9653419009576247 true
gene 1 2 41 -0.9174163483373734 false 3081 -0.9174163483373734 true
gene 1 5 41 9.982965334498525 false 3084 9.982965334498525 true
gene 1 7 41 -3.9871149492784186 false 3086 -3.9871149492784186 true
gene 1 9 41 1.4471566958416457 false 3088 1.4471566958416457 true
gene 1 23 41 -7.620787151472192 false 3102 -7.620787151472192 true
gene 1 24 41 1.844218320234474 false 3103 1.844218320234474 true
gene 1 32 41 -1.4088813212385072 false 3111 -1.4088813212385072 true
gene 1 37 41 2.4333021765357725 false 3116 2.4333021765357725 true
gene 1 45 41 -2.4833408238862367 true 3124 -2.4833408238862367 true
gene 1 51 41 5.594047945381707 true 3130 5.594047945381707 true
gene 1 70 41 -12.956043072332555 true 3149 -12.956043072332555 true
gene 1 76 41 9.402568650885836 true 3155 9.402568650885836 true
gene 1 77 41 7.1815733018656065 true 3156 7.1815733018656065 true
gene 1 6 42 -4.8341111066379145 false 3162 -4.8341111066379145 true
gene 1 11 42 -11.03005973070658 false 3167 -11.03005973070658 true
gene 1 14 42 6.746765225027085 false 3170 6.746765225027085 true
gene 1 17 42 -2.3987757856286938 false 3173 -2.3987757856286938 true
gene 1 19 42 -3.3413349119902818 false 3175 -3.3413349119902818 true
gene 1 20 42 -12.367948199173583 false 3176 -12.367948199173583 true
gene 1 22 42 -1.3242330263539237 false 3178 -1.3242330263539237 true
gene 1 23 42 -6.063395661926367 false 3179 -6.063395661926367 true
gene 1 27 42 1.4431838994379635 false 3183 1.4431838994379635 true
gene 1 34 42 4.416016587832098 false 3190 4.416016587832098 true
gene 1 39 42 0.874860112443515 false 3195 0.874860112443515 true
gene 1 40 42 -3.3152774197687553 false 3196 -3.3152774197687553 true
gene 1 48 42 1.165485832118696 true 3204 1.165485832118696 true
gene 1 69 42 -0.9141263485032991 true 3225 -0.9141263485032991 true
gene 1 71 42 -0.2698993456466685 true 3227 -0.2698993456466685 true
gene 1 75 42 1.976772903044142 true 3231 1.976772903044142 true
gene 1 6 43 -4.497351051121618 false 3239 -4.497351051121618 true
gene 1 7 43 8.367959173928833 false 3240 8.367959173928833 true
gene 1 13 43 1.0367586341308437 false 3246 1.0367586341308437 true
gene 1 16 43 6.7445787526108605 false 3249 6.7445787526108605 true
gene 1 21 43 -4.956077796136956 false 3254 -4.956077796136956 true
gene 1 23 43 -1.4168741568739702 false 3256 -1.4168741568739702 true
gene 1 25 43 4.1789949594063955 false 3258 4.1789949594063955 true
gene 1 26 43 -9.47719254590447 false 3259 -9.47719254590447 true
gene 1 29 43 -0.6975688000619961 false 3262 -0.6975688000619961 true
gene 1 35 43 -0.6887979652950837 false 3268 -0.6887979652950837 true
gene 1 42 43 2.632344609136174 false 3275 2.632344609136174 true
gene 1 45 43 -1.3973647040752437 true 3278 -1.3973647040752437 true
gene 1 51 43 -9.09637880269348 true 3284 -9.09637880269348 true
gene 1 52 43 7.4413897106385365 true 3285 7.4413897106385365 true
gene 1 69 43 -2.412252253561951 true 3302 -2.412252253561951 true
gene 1 72 43 5.401486645770832 true 3305 5.401486645770832 true
gene 1 1 44 -2.820599429790194 false 3311 -2.820599429790194 true
gene 1 4 44 2.106519483580593 false 3314 2.106519483580593 true
gene 1 16 44 19.46076414808108 false 3326 19.46076414808108 true
gene 1 19 44 5.782395935742254 false 3329 5.782395935742254 true
gene 1 27 44 -11.746610881097913 false 3337 -11.746610881097913 true
gene 1 33 44 -7.154910729264856 false 3343 -7.154910729264856 true
gene 1 35 44 0.24437744543888706 false 3345 0.24437744543888706 true
gene 1 36 44 -1.348371961929354 false 3346 -1.348371961929354 true
gene 1 38 44 1.8583015839444164 false 3348 1.8583015839444164 true
gene 1 43 44 -1.05890526622548 false 3353 -1.05890526622548 true
gene 1 46 44 -0.768596173895148 true 3356 -0.768596173895148 true
gene 1 47 44 -3.96460263250143 true 3357 -3.96460263250143 true
gene 1 48 44 1.472098267439589 true 3358 1.472098267439589 true
gene 1 69 44 -3.1289369580169644 true 3379 -3.1289369580169644 true
gene 1 71 44 -5.755700008332038 true 3381 -5.755700008332038 true
gene 1 72 44 7.030648174054471 true 3382 7.030648174054471 true
gene 1 73 44 1.2842014095073835 true 3383 1.2842014095073835 true
gene 1 77 44 -1.2786000153958594 true 3387 -1.2786000153958594 true
gene 1 1 45 -10.885742393748846 false 3388 -10.885742393748846 true
gene 1 7 45 -7.951023524634527 false 3394 -7.951023524634527 true
gene 1 11 45 -3.3937200074521514 false 3398 -3.3937200074521514 true
gene 1 14 45 1.6644796712937067 false 3401 1.6644796712937067 true
gene 1 16 45 3.80136764624972 false 3403 3.80136764624972 true
gene 1 17 45 4.520729963180253 false 3404 4.520729963180253 true
gene 1 23 45 -7.341716012057083 false 3410 -7.341716012057083 true
gene 1 25 45 -6.498880104260092 false 3412 -6.498880104260092 true
gene 1 28 45 3.2226015010805495 false 3415 3.2226015010805495 true
gene 1 29 45 0.9489774275739912 false 3416 0.9489774275739912 true
gene 1 35 45 1.6026370540800254 false 3422 1.6026370540800254 true
gene 1 40 45 4.157812168315373 false 3427 4.157812168315373 true
gene 1 48 45 1.4872233858163382 true 3435 1.4872233858163382 true
gene 1 50 45 -7.770088348132346 true 3437 -7.770088348132346 true
gene 1 75 45 -0.177927226542541 true 3462 -0.177927226542541 true
gene 1 6 46 -2.201815167695438 false 3470 -2.201815167695438 true
gene 1 7 46 2.0616668800600535 false 3471 2.0616668800600535 true
gene 1 8 46 9.748356351709727 false 3472 9.748356351709727 true
gene 1 16 46 1.6082112895751994 false 3480 1.6082112895751994 true
gene 1 19 46 -2.266766594867125 false 3483 -2.266766594867125 true
gene 1 24 46 -5.169753113133973 false 3488 -5.169753113133973 true
gene 1 25 46 -3.878278806830835 false 3489 -3.878278806830835 true
gene 1 28 46 -10.8868941994918 false 3492 -10.8868941994918 true
gene 1 31 46 -0.21530550349560995 false 3495 -0.21530550349560995 true
gene 1 39 46 -4.936118107897178 false 3503 -4.936118107897178 true
gene 1 44 46 2.8685849853159073 false 3508 2.8685849853159073 true
gene 1 52 46 -10.75149739425061 true 3516 -10.75149739425061 true
gene 1 53 46 9.23072815341902 true 3517 9.23072815341902 true
gene 1 73 46 0.8415854824485139 true 3537 0.8415854824485139 true
gene 1 74 46 4.879568888151884 true 3538 4.879568888151884 true
gene 1 1 47 1.4298245754027907 false 3542 1.4298245754027907 true
gene 1 2 47 -0.6772319053932794 false 3543 -0.6772319053932794 true
gene 1 5 47 -3.2416395015752917 false 3546 -3.2416395015752917 true
gene 1 7 47 1.7073176836787114 false 3548 1.7073176836787114 true
gene 1 8 47 3.2808460188258772 false 3549 3.2808460188258772 true
gene 1 21 47 2.1894942436754556 false 3562 2.1894942436754556 true
gene 1 25 47 -0.0895253609170854 false 3566 -0.0895253609170854 true
gene 1 26 47 1.1323784974931432 false 3567 1.1323784974931432 true
gene 1 27 47 -5.066006624684021 false 3568 -5.066006624684021 true
gene 1 35 47 5.414228898575157 false 3576 5.414228898575157 true
gene 1 39 47 -1.8382267880350893 false 3580 -1.8382267880350893 true
gene 1 41 47 -2.230225908187144 false 3582 -2.230225908187144 true
gene 1 44 47 -1.5591345041884375 false 3585 -1.5591345041884375 true
gene 1 48 47 1.2026030170734616 true 3589 1.2026030170734616 true
gene 1 49 47 7.1381190559933385 true 3590 7.1381190559933385 true
gene 1 71 47 -3.6867756767488165 true 3612 -3.6867756767488165 true
gene 1 72 47 -1.3299718983735236 true 3613 -1.3299718983735236 true
gene 1 76 47 1.5038863913572649 true 3617 1.5038863913572649 true
gene 1 11 48 0.9042293217659134 false 3629 0.9042293217659134 true
gene 1 16 48 3.2361595143436555 false 3634 3.2361595143436555 true
gene 1 17 48 14.609095873641078 false 3635 14.609095873641078 true
gene 1 21 48 13.75222981052012 false 3639 13.75222981052012 true
gene 1 22 48 13.61473193684879 false 3640 13.61473193684879 true
gene 1 30 48 -15.825811589602136 false 3648 -15.825811589602136 true
gene 1 38 48 2.849974963148042 false 3656 2.849974963148042 true
gene 1 39 48 0.5763854138820603 false 3657 0.5763854138820603 true
gene 1 40 48 2.3508922284228504 false 3658 2.3508922284228504 true
gene 1 44 48 7.3222029853081425 false 3662 7.3222029853081425 true
gene 1 46 48 7.261338209526345 false 3664 7.261338209526345 true
gene 1 52 48 -1.623188079542519 true 3670 -1.623188079542519 true
gene 1 70 48 -7.995047875361231 true 3688 -7.995047875361231 true
gene 1 76 48 2.4607917767992045 true 3694 2.4607917767992045 true
gene 1 77 48 3.9493133218968106 true 3695 3.9493133218968106 true
gene 1 16 49 -3.2050114172053776 false 3711 -3.2050114172053776 true
gene 1 18 49 1.034966352965522 false 3713 1.034966352965522 true
gene 1 19 49 -1.2508852106718396 false 3714 -1.2508852106718396 true
gene 1 24 49 0.5599552552133056 false 3719 0.5599552552133056 true
gene 1 28 49 -4.047880251675464 false 3723 -4.047880251675464 true
gene 1 30 49 -0.882205802459338 false 3725 -0.882205802459338 true
gene 1 38 49 -0.08694360072463758 false 3733 -0.08694360072463758 true
gene 1 41 49 -2.602598638340263 false 3736 -2.602598638340263 true
gene 1 51 49 -8.038963068506272 true 3746 -8.038963068506272 true
gene 1 71 49 8.072781649974548 true 3766 8.072781649974548 true
gene 1 72 49 1.2939022185043596 true 3767 1.2939022185043596 true
gene 1 2 50 -0.3927882098213483 false 3774 -0.3927882098213483 true
gene 1 5 50 -6.771975083978079 false 3777 -6.771975083978079 true
gene 1 6 50 -6.21443074978214 false 3778 -6.21443074978214 true
gene 1 11 50 -1.843858394625458 false 3783 -1.843858394625458 true
gene 1 13 50 -10.139669895882662 false 3785 -10.139669895882662 true
gene 1 18 50 0.5807831639915475 false 3790 0.5807831639915475 true
gene 1 24 50 -5.8779015851015295 false 3796 -5.8779015851015295 true
gene 1 27 50 6.186310533828813 false 3799 6.186310533828813 true
gene 1 28 50 -1.3560576601870569 false 3800 -1.3560576601870569 true
gene 1 32 50 2.6191938463455484 false 3804 2.6191938463455484 true
gene 1 37 50 -1.8260498103263156 false 3809 -1.8260498103263156 true
gene 1 40 50 7.868458480525927 false 3812 7.868458480525927 true
gene 1 42 50 2.5054745663074267 false 3814 2.5054745663074267 true
gene 1 43 50 -3.7512201257155318 false 3815 -3.7512201257155318 true
gene 1 48 50 1.6457114902505756 false 3820 1.6457114902505756 true
gene 1 52 50 -0.23217612467531312 true 3824 -0.23217612467531312 true
gene 1 1 51 1.6169345470950027 false 3850 1.6169345470950027 true
gene 1 4 51 -4.076696193529968 false 3853 -4.076696193529968 true
gene 1 7 51 0.5620593155954821 false 3856 0.5620593155954821 true
gene 1 10 51 -4.0736807831449 false 3859 -4.0736807831449 true
gene 1 18 51 9.330550917345542 false 3867 9.330550917345542 true
gene 1 22 51 -5.419932185237471 false 3871 -5.419932185237471 true
gene 1 27 51 -0.6542347086807093 false 3876 -0.6542347086807093 true
gene 1 28 51 0.8456358654732055 false 3877 0.8456358654732055 true
gene 1 36 51 1.0938947226961755 false 3885 1.0938947226961755 true
gene 1 42 51 4.074288528748548 false 3891 4.074288528748548 true
gene 1 45 51 -0.2515363597035356 false 3894 -0.2515363597035356 true
gene 1 49 51 -4.118542456424154 false 3898 -4.118542456424154 true
gene 1 69 51 4.076576885906823 true 3918 4.076576885906823 true
gene 1 70 51 13.267230136466392 true 3919 13.267230136466392 true
gene 1 74 51 1.0539769173183522 true 3923 1.0539769173183522 true
gene 1 1 52 -4.443339168240658 false 3927 -4.443339168240658 true
gene 1 2 52 -4.949462340415823 false 3928 -4.949462340415823 true
gene 1 13 52 3.003909823459064 false 3939 3.003909823459064 true
gene 1 14 52 -1.2550254871525972 false 3940 -1.2550254871525972 true
gene 1 18 52 3.835802721701068 false 3944 3.835802721701068 true
gene 1 22 52 2.809054406793617 false 3948 2.809054406793617 true
gene 1 25 52 -10.051985526130176 false 3951 -10.051985526130176 true
gene 1 27 52 -10.313247502056086 false 3953 -10.313247502056086 true
gene 1 30 52 -3.8035525748453733 false 3956 -3.8035525748453733 true
gene 1 34 52 -1.6397823014673647 false 3960 -1.6397823014673647 true
gene 1 35 52 -1.028081140326957 false 3961 -1.028081140326957 true
gene 1 36 52 -4.656034800310312 false 3962 -4.656034800310312 true
gene 1 52 52 3.867799827526447 true 3978 3.867799827526447 true
gene 1 70 52 2.728981775293627 true 3996 2.728981775293627 true
gene 1 73 52 3.4032929366050073 true 3999 3.4032929366050073 true
gene 1 75 52 -1.9347635805110235 true 4001 -1.9347635805110235 true
gene 1 4 53 1.6984153755117346 false 4007 1.6984153755117346 true
gene 1 7 53 -3.3944244974639886 false 4010 -3.3944244974639886 true
gene 1 16 53 -8.633308583361986 false 4019 -8.633308583361986 true
gene 1 26 53 -9.448641625446486 false 4029 -9.448641625446486 true
gene 1 27 53 0.49437363282234403 false 4030 0.49437363282234403 true
gene 1 32 53 8.17170144491559 false 4035 8.17170144491559 true
gene 1 41 53 1.9130391799750255 false 4044 1.9130391799750255 true
gene 1 45 53 13.148578401672253 false 4048 13.148578401672253 true
gene 1 48 53 -4.289442891563716 false 4051 -4.289442891563716 true
gene 1 49 53 1.9786639068690062 false 4052 1.9786639068690062 true
gene 1 53 53 1.7915680080309764 true 4056 1.7915680080309764 true
gene 1 70 53 -3.939419829765595 true 4073 -3.939419829765595 true
gene 1 73 53 -1.4109348492816074 true 4076 -1.4109348492816074 true
gene 1 4 69 4.7234097311563294 false 5239 4.7234097311563294 true
gene 1 11 69 2.5452111988791284 false 5246 2.5452111988791284 true
gene 1 16 69 -2.913194286192733 false 5251 -2.913194286192733 true
gene 1 36 69 13.62321778161213 false 5271 13.62321778161213 true
gene 1 40 69 1.7002297066541834 false 5275 1.7002297066541834 true
gene 1 44 69 1.4856588826614199 false 5279 1.4856588826614199 true
gene 1 52 69 -0.5133495947088498 false 5287 -0.5133495947088498 true
gene 1 74 69 6.9023271162666635 true 5309 6.9023271162666635 true
gene 1 77 69 1.7011396177250402 true 5312 1.7011396177250402 true
gene 1 3 70 0.8818214023164059 false 5315 0.8818214023164059 true
gene 1 6 70 -2.0392538683359396 false 5318 -2.0392538683359396 true
gene 1 11 70 2.5212546417918666 false 5323 2.5212546417918666 true
gene 1 12 70 -1.7329254845458286 false 5324 -1.7329254845458286 true
gene 1 16 70 -1.7064005403729885 false 5328 -1.7064005403729885 true
gene 1 18 70 2.2143984119936273 false 5330 2.2143984119936273 true
gene 1 21 70 -1.2061739591412108 false 5333 -1.2061739591412108 true
gene 1 23 70 0.1514695326792428 false 5335 0.1514695326792428 true
gene 1 25 70 -6.383073471870677 false 5337 -6.383073471870677 true
gene 1 28 70 1.4442660212768625 false 5340 1.4442660212768625 true
gene 1 30 70 5.600713678889827 false 5342 5.600713678889827 true
gene 1 34 70 0.08407239143730816 false 5346 0.08407239143730816 true
gene 1 40 70 13.467291276516494 false 5352 13.467291276516494 true
gene 1 42 70 4.847353952150572 false 5354 4.847353952150572 true
gene 1 47 70 3.339500115497816 false 5359 3.339500115497816 true
gene 1 52 70 -1.5370364224673352 false 5364 -1.5370364224673352 true
gene 1 53 70 2.441665209916775 false 5365 2.441665209916775 true
gene 1 73 70 7.138949914554532 true 5385 7.138949914554532 true
gene 1 75 70 2.0861131350053332 true 5387 2.0861131350053332 true
gene 1 3 71 1.7843608334162104 false 5392 1.7843608334162104 true
gene 1 4 71 7.421555215388551 false 5393 7.421555215388551 true
gene 1 10 71 1.9717661426084248 false 5399 1.9717661426084248 true
gene 1 11 71 9.030001723345643 false 5400 9.030001723345643 true
gene 1 14 71 -4.044289386560206 false 5403 -4.044289386560206 true
gene 1 18 71 4.355746813213393 false 5407 4.355746813213393 true
gene 1 22 71 -5.234897450597268 false 5411 -5.234897450597268 true
gene 1 36 71 2.389240383306852 false 5425 2.389240383306852 true
gene 1 38 71 17.741853480406224 false 5427 17.741853480406224 true
gene 1 46 71 8.713211060113546 false 5435 8.713211060113546 true
gene 1 51 71 9.044364492998959 false 5440 9.044364492998959 true
gene 1 5 72 4.098334187339324 false 5471 4.098334187339324 true
gene 1 19 72 -0.42026981619771286 false 5485 -0.42026981619771286 true
gene 1 20 72 -3.5695819101558723 false 5486 -3.5695819101558723 true
gene 1 22 72 -3.0912263633288193 false 5488 -3.0912263633288193 true
gene 1 27 72 0.6266546163406136 false 5493 0.6266546163406136 true
gene 1 29 72 -3.6206999359039855 false 5495 -3.6206999359039855 true
gene 1 32 72 -0.4699568864211713 false 5498 -0.4699568864211713 true
gene 1 33 72 -1.6388433855507096 false 5499 -1.6388433855507096 true
gene 1 41 72 2.9116388811503495 false 5507 2.9116388811503495 true
gene 1 69 72 3.409588393491595 false 5535 3.409588393491595 true
gene 1 70 72 4.509750030287964 false 5536 4.509750030287964 true
gene 1 71 72 -1.2220998434102128 false 5537 -1.2220998434102128 true
gene 1 75 72 -1.6213710150368605 true 5541 -1.6213710150368605 true
gene 1 4 73 5.662322154847983 false 5547 5.662322154847983 true
gene 1 6 73 -3.4472907140203013 false 5549 -3.4472907140203013 true
gene 1 9 73 -0.6495357212555113 false 5552 -0.6495357212555113 true
gene 1 10 73 1.3030659826684985 false 5553 1.3030659826684985 true
gene 1 12 73 0.08347117008887106 false 5555 0.08347117008887106 true
gene 1 13 73 -6.527112541400541 false 5556 -6.527112541400541 true
gene 1 15 73 -0.0541836029418431 false 5558 -0.0541836029418431 true
gene 1 18 73 -2.4605562217866854 false 5561 -2.4605562217866854 true
gene 1 22 73 2.6371751599267688 false 5565 2.6371751599267688 true
gene 1 24 73 2.856108869658082 false 5567 2.856108869658082 true
gene 1 27 73 -0.9944698480943859 false 5570 -0.9944698480943859 true
gene 1 28 73 -2.24275546892036 false 5571 -2.24275546892036 true
gene 1 30 73 -1.313427211817333 false 5573 -1.313427211817333 true
gene 1 40 73 -2.578025250170799 false 5583 -2.578025250170799 true
gene 1 43 73 -7.117474287093134 false 5586 -7.117474287093134 true
gene 1 44 73 1.852354993948878 false 5587 1.852354993948878 true
gene 1 48 73 -8.735089400725396 false 5591 -8.735089400725396 true
gene 1 50 73 0.5539837718100422 false 5593 0.5539837718100422 true
gene 1 51 73 2.9180982120879055 false 5594 2.9180982120879055 true
gene 1 52 73 -7.925779684622238 false 5595 -7.925779684622238 true
gene 1 71 73 -5.712391103091068 false 5614 -5.712391103091068 true
gene 1 73 73 -3.542101115904643 true 5616 -3.542101115904643 true
gene 1 2 74 -1.3903814031132176 false 5622 -1.3903814031132176 true
gene 1 7 74 -3.0383189902355934 false 5627 -3.0383189902355934 true
gene 1 29 74 0.16074507299095614 false 5649 0.16074507299095614 true
gene 1 34 74 -6.89783771104884 false 5654 -6.89783771104884 true
gene 1 36 74 4.907772875212058 false 5656 4.907772875212058 true
gene 1 42 74 7.101148057195028 false 5662 7.101148057195028 true
gene 1 47 74 -0.8055676767469759 false 5667 -0.8055676767469759 true
gene 1 51 74 2.513078894139456 false 5671 2.513078894139456 true
gene 1 52 74 0.9552139114959917 false 5672 0.9552139114959917 true
gene 1 71 74 0.9411101721748157 false 5691 0.9411101721748157 true
gene 1 77 74 -0.8196348461939893 true 5697 -0.8196348461939893 true
gene 1 3 75 -2.1258165090771426 false 5700 -2.1258165090771426 true
gene 1 4 75 -3.9320936283368937 false 5701 -3.9320936283368937 true
gene 1 5 75 2.767382101418545 false 5702 2.767382101418545 true
gene 1 7 75 1.4305173800487652 false 5704 1.4305173800487652 true
gene 1 23 75 0.3247073663745096 false 5720 0.3247073663745096 true
gene 1 24 75 -0.15314208905944526 false 5721 -0.15314208905944526 true
gene 1 29 75 -4.378874427437481 false 5726 -4.378874427437481 true
gene 1 34 75 5.369249060707597 false 5731 5.369249060707597 true
gene 1 36 75 7.641199844791672 false 5733 7.641199844791672 true
gene 1 38 75 6.314269977751494 false 5735 6.314269977751494 true
gene 1 46 75 6.89229834731438 false 5743 6.89229834731438 true
gene 1 48 75 -3.889161166557397 false 5745 -3.889161166557397 true
gene 1 49 75 -3.3057525892219273 false 5746 -3.3057525892219273 true
gene 1 50 75 8.263130280988328 false 5747 8.263130280988328 true
gene 1 52 75 -6.51141927952961 false 5749 -6.51141927952961 true
gene 1 73 75 -1.0836642499046416 false 5770 -1.0836642499046416 true
gene 1 76 75 -2.8652939770194563 true 5773 -2.8652939770194563 true
gene 1 1 76 -10.682090492809747 false 5775 -10.682090492809747 true
gene 1 9 76 8.87426345675849 false 5783 8.87426345675849 true
gene 1 14 76 -5.7125455163681735 false 5788 -5.7125455163681735 true
gene 1 17 76 -1.4390104331832831 false 5791 -1.4390104331832831 true
gene 1 18 76 1.0281387924574696 false 5792 1.0281387924574696 true
gene 1 21 76 -9.517432285478458 false 5795 -9.517432285478458 true
gene 1 23 76 7.450570789322735 false 5797 7.450570789322735 true
gene 1 28 76 1.6611025062002576 false 5802 1.6611025062002576 true
gene 1 31 76 -1.654117228199501 false 5805 -1.654117228199501 true
gene 1 33 76 3.8564061399474303 false 5807 3.8564061399474303 true
gene 1 37 76 -17.063380265265415 false 5811 -17.063380265265415 true
gene 1 46 76 -0.12338357077460893 false 5820 -0.12338357077460893 true
gene 1 69 76 7.46353947800991 false 5843 7.46353947800991 true
gene 1 72 76 0.01863837786600686 false 5846 0.01863837786600686 true
gene 1 1 77 0.7865255181144855 false 5852 0.7865255181144855 true
gene 1 4 77 -4.701760270167498 false 5855 -4.701760270167498 true
gene 1 11 77 -6.184683221422798 false 5862 -6.184683221422798 true
gene 1 18 77 7.323801839766684 false 5869 7.323801839766684 true
gene 1 23 77 -4.08997463046306 false 5874 -4.08997463046306 true
gene 1 24 77 -6.790304808665013 false 5875 -6.790304808665013 true
gene 1 37 77 -20.745799841035595 false 5888 -20.745799841035595 true
gene 1 41 77 -12.770407566290952 false 5892 -12.770407566290952 true
gene 1 42 77 -12.545043831122118 false 5893 -12.545043831122118 true
gene 1 49 77 6.884997585157936 false 5900 6.884997585157936 true
gene 1 72 77 -12.00507522857819 false 5923 -12.00507522857819 true
gene 1 11 136 3.903450274931893 false 6214 3.903450274931893 true
gene 1 136 45 4.8139854577897 false 6215 4.8139854577897 true
gene 1 25 183 -0.3215517672021872 false 6438 -0.3215517672021872 true
gene 1 183 47 5.041282483776099 false 6439 5.041282483776099 true
gene 1 31 39 -3.319493341064966 false 6752 -3.319493341064966 true
gene 1 51 346 -4.345654985659865 true 7236 -4.345654985659865 true
gene 1 346 39 4.404202571356565 false 7237 4.404202571356565 true
gene 1 26 48 1.3854782844852354 false 8013 1.3854782844852354 true
gene 1 46 69 -0.0017099557010236133 false 8458 -0.0017099557010236133 true
gene 1 28 77 -3.3769404002931545 false 8819 -3.3769404002931545 true
gene 1 23 714 8.276586244365168 false 9158 8.276586244365168 true
gene 1 714 43 2.839254343826343 false 9159 2.839254343826343 true
gene 1 73 856 5.175167472152017 true 9905 5.175167472152017 true
gene 1 856 53 -0.6610665741554078 false 9906 -0.6610665741554078 true
gene 1 35 74 -2.4212177659447187 false 10374 -2.4212177659447187 true
gene 1 30 183 -2.399274253502737 false 11133 -2.399274253502737 true
gene 1 76 1205 -7.062445621767899 true 11649 -7.062445621767899 true
gene 1 1205 41 -0.3849041433024494 false 11650 -0.3849041433024494 true
gene 1 31 74 1.5449122546784937 false 11903 1.5449122546784937 true
gene 1 10 48 -0.6993338479806291 false 12581 -0.6993338479806291 true
gene 1 52 44 -0.8336102088657376 false 12814 -0.8336102088657376 true
gene 1 42 76 0.2387077534238955 false 13062 0.2387077534238955 true
gene 1 6 48 -2.3628793509553216 false 13438 -2.3628793509553216 true
gene 1 12 47 -13.491336025421912 false 13872 -13.491336025421912 true
gene 1 23 1681 -1.01321048602831 false 14125 -1.01321048602831 true
gene 1 1681 41 2.2191407758312756 false 14126 2.2191407758312756 true
gene 1 26 72 0.7660274310951436 false 14516 0.7660274310951436 true
gene 1 3 73 -4.373436641066838 false 14768 -4.373436641066838 true
gene 1 26 77 -21.321066678350324 false 15262 -21.321066678350324 true
gene 1 33 183 -0.09607537610877775 false 15524 -0.09607537610877775 true
gene 1 45 1681 0.5533839839225372 false 16544 0.5533839839225372 true
gene 1 43 49 4.10064084819718 false 17248 4.10064084819718 true
gene 1 27 856 3.09201916003199 false 17387 3.09201916003199 true
gene 1 25 2346 -3.2508914747921276 false 17605 -3.2508914747921276 true
gene 1 2346 47 10.327457782348464 false 17606 10.327457782348464 true
gene 1 30 75 2.3588062453934233 false 17890 2.3588062453934233 true
gene 1 45 48 -0.33327796010438193 false 18739 -0.33327796010438193 true
gene 1 8 72 0.8422989276424042 false 19231 0.8422989276424042 true
gene 1 31 72 -0.41705175698677166 false 20311 -0.41705175698677166 true
gene 1 2 3237 -4.661082019192113 false 22331 -4.661082019192113 true
gene 1 3237 40 1.0072920054543142 false 22332 1.0072920054543142 true
gene 1 714 72 10.615884116608594 false 22600 10.615884116608594 true
gene 1 46 3360 -1.1838969391407266 false 22948 -1.1838969391407266 true
gene 1 3360 71 0.37035634309993226 false 22949 0.37035634309993226 true
gene 1 11 3477 1.3748006685592582 false 23541 1.3748006685592582 true
gene 1 3477 71 11.672252615332473 false 23542 11.672252615332473 true
gene 1 1 53 9.020062944249322 false 23832 9.020062944249322 true
gene 1 34 45 -8.903021441848216 false 24057 -8.903021441848216 true
gene 1 7 136 5.474228831106025 false 24312 5.474228831106025 true
gene 1 1681 39 -8.406723986758038 false 24550 -8.406723986758038 true
gene 1 7 714 -8.171929097875184 false 24798 -8.171929097875184 true
gene 1 19 69 16.474557869565984 false 25039 16.474557869565984 true
gene 1 1 856 -1.5800099858223915 false 25559 -1.5800099858223915 true
gene 1 14 53 -0.0394702558792801 false 25817 -0.0394702558792801 true
gene 1 18 4003 -0.4678882877984679 false 26347 -0.4678882877984679 true
gene 1 4003 71 5.539077573496854 false 26348 5.539077573496854 true
gene 1 3 3477 4.651846516354567 false 27412 4.651846516354567 true
gene 1 70 4305 2.3872771465844957 true 27911 2.3872771465844957 true
gene 1 4305 52 5.039856807859228 false 27912 5.039856807859228 true
gene 1 9 40 -1.1925200523062567 false 28514 -1.1925200523062567 true
gene 1 27 4443 9.91935101094361 false 28762 9.91935101094361 true
gene 1 4443 53 4.056176360593399 false 28763 4.056176360593399 true
gene 1 30 77 2.2411392601314586 false 29024 2.2411392601314586 true
gene 1 69 4548 5.4551808136732 true 29359 5.4551808136732 true
gene 1 4548 44 0.7781125711998903 false 29360 0.7781125711998903 true
gene 1 51 48 -0.7740939081962244 false 29763 -0.7740939081962244 true
gene 1 23 69 -2.3262557360639016 false 29997 -2.3262557360639016 true
gene 1 77 4779 -2.7985954572273135 true 30491 -2.7985954572273135 true
gene 1 4779 74 -13.809730307164555 false 30492 -13.809730307164555 true
gene 1 43 4895 -0.3352319356014698 false 31068 -0.3352319356014698 true
gene 1 4895 44 -0.06785516152207785 false 31069 -0.06785516152207785 true
gene 1 2 4895 6.625595312224203 false 31931 6.625595312224203 true
gene 1 12 4305 -2.422714219125784 false 33200 -2.422714219125784 true
gene 1 39 4779 -11.505779787053038 false 33733 -11.505779787053038 true
gene 1 35 5431 1.0345900384996374 false 33965 1.0345900384996374 true
gene 1 5431 43 4.874300779820752 false 33966 4.874300779820752 true
gene 1 70 5475 1.3058287105745816 true 34236 1.3058287105745816 true
gene 1 5475 53 2.0725408020099296 false 34237 2.0725408020099296 true
gene 1 27 1205 -10.759103951591776 false 34928 -10.759103951591776 true
gene 1 4305 47 -2.177926265506752 false 35206 -2.177926265506752 true
gene 1 48 5742 -5.082372014693816 true 35673 -5.082372014693816 true
gene 1 5742 45 0.7830622384000874 false 35674 0.7830622384000874 true
gene 1 14 5901 -2.780104422628262 false 36536 -2.780104422628262 true
gene 1 5901 40 3.121578704357227 false 36537 3.121578704357227 true
gene 1 11 6047 1.7001541469363513 false 37337 1.7001541469363513 true
gene 1 6047 3477 1.3874630492936157 false 37338 1.3874630492936157 true
gene 1 69 6130 -9.748663508155216 true 37808 -9.748663508155216 true
gene 1 6130 42 3.6459709095331414 false 37809 3.6459709095331414 true
gene 1 43 6175 5.144048571707703 false 38060 5.144048571707703 true
gene 1 6175 50 14.054873372193692 false 38061 14.054873372193692 true
gene 1 24 74 5.970951402367358 false 38419 5.970951402367358 true
gene 1 856 6348 -1.00104779920077 false 38933 -1.00104779920077 true
gene 1 6348 53 4.185115654509971 false 38934 4.185115654509971 true
gene 1 12 6389 12.797687298044071 false 39283 12.797687298044071 true
gene 1 6389 70 13.016994627695706 false 39284 13.016994627695706 true
gene 1 19 4003 6.1175382412841985 false 39591 6.1175382412841985 true
gene 1 5475 5901 -15.466036330886329 false 39762 -15.466036330886329 true
gene 1 4443 1205 3.5929305998124086 false 39950 3.5929305998124086 true
gene 1 4895 6559 5.666568951835512 false 40184 5.666568951835512 true
gene 1 6559 44 -1.438592030325471 false 40185 -1.438592030325471 true
gene 1 5 6642 -7.163741294013162 false 40587 -7.163741294013162 true
gene 1 6642 72 6.438091709418675 false 40588 6.438091709418675 true
gene 1 714 5742 -6.66595514253782 false 40849 -6.66595514253782 true
gene 1 71 6752 0.0682310388050158 true 41120 0.0682310388050158 true
gene 1 6752 42 -6.021699493408059 false 41121 -6.021699493408059 true
gene 1 34 6348 -7.786315897886022 false 42008 -7.786315897886022 true
gene 1 6559 41 1.3336842381783864 false 42552 1.3336842381783864 true
gene 1 28 47 4.004322471107257 false 43339 4.004322471107257 true
gene 1 5431 7237 -2.332001813245424 false 43619 -2.332001813245424 true
gene 1 7237 43 1.963400891707753 false 43620 1.963400891707753 true
gene 1 49 7401 -7.272373892644545 false 44547 -7.272373892644545 true
gene 1 7401 51 -0.22579755931401402 false 44548 -0.22579755931401402 true
gene 1 29 714 1.025173638002115 false 44750 1.025173638002115 true
gene 1 76 4779 -1.0934540955635148 false 45514 -1.0934540955635148 true
gene 1 6348 4443 4.886273490556062 false 46303 4.886273490556062 true
gene 1 136 44 2.8601470410900673 false 46875 2.8601470410900673 true
gene 1 4305 49 -1.1186843403813937 false 47393 -1.1186843403813937 true
gene 1 39 8018 -0.30662894773245797 false 47660 -0.30662894773245797 true
gene 1 8018 42 0.18787844284589483 false 47661 0.18787844284589483 true
gene 1 6 3237 8.3899971417075 false 47914 8.3899971417075 true
gene 1 76 8137 -6.167345251522144 false 48279 -6.167345251522144 true
gene 1 8137 4779 -3.1871393417787033 false 48280 -3.1871393417787033 true
gene 1 27 6175 -5.370803319997309 false 48534 -5.370803319997309 true
gene 1 3477 4548 0.035408137325023015 false 49136 0.035408137325023015 true
gene 1 27 4305 -1.5278895921950264 false 49392 -1.5278895921950264 true
gene 1 39 76 6.334186772699489 false 49844 6.334186772699489 true
gene 1 28 8450 2.6217981298958017 false 50083 2.6217981298958017 true
gene 1 8450 73 -9.857455661918925 false 50084 -9.857455661918925 true
gene 1 6642 3477 -1.4246048003358176 false 50390 -1.4246048003358176 true
gene 1 3 5901 4.807312842863029 false 50531 4.807312842863029 true
gene 1 2 8569 -11.929830913045588 false 50705 -11.929830913045588 true
gene 1 8569 4895 11.296701963890769 false 50706 11.296701963890769 true
gene 1 73 8743 -1.5847409106023638 true 51584 -1.5847409106023638 true
gene 1 8743 53 -0.7111473090920675 false 51585 -0.7111473090920675 true
gene 1 9 44 -7.729775864114257 false 51979 -7.729775864114257 true
gene 1 4 5901 0.9015457123706002 false 52696 0.9015457123706002 true
gene 1 34 3477 7.062161464351679 false 52951 7.062161464351679 true
gene 1 14 4003 18.424775379207766 false 53770 18.424775379207766 true
gene 1 76 9305 -2.851512599203714 true 54608 -2.851512599203714 true
gene 1 9305 1205 -0.08857188645246683 false 54609 -0.08857188645246683 true
gene 1 4003 69 -1.8588003572060052 false 54890 -1.8588003572060052 true
gene 1 33 4003 2.2871565523057087 false 55089 2.2871565523057087 true
gene 1 4305 6130 1.2960721615168131 false 55276 1.2960721615168131 true
gene 1 8450 8450 -11.030816697914284 true 55476 -11.030816697914284 true
gene 1 8 43 6.85093321155305 false 56387 6.85093321155305 true
gene 1 183 73 1.6514242088652802 false 57103 1.6514242088652802 true
gene 1 2346 714 0.3268172231708085 false 57388 0.3268172231708085 true
gene 1 3237 50 -1.5544215291081438 false 58450 -1.5544215291081438 true
gene 1 22 10140 -3.3794800564748613 false 59294 -3.3794800564748613 true
gene 1 10140 40 -4.492672788667644 false 59295 -4.492672788667644 true
gene 1 4 45 0.4406857700505755 false 59548 0.4406857700505755 true
gene 1 1 10428 14.950611913350087 false 61017 14.950611913350087 true
gene 1 10428 47 3.637159094852612 false 61018 3.637159094852612 true
gene 1 7401 53 4.662614968032413 false 61343 4.662614968032413 true
gene 1 10140 69 4.326326941997755 false 61831 4.326326941997755 true
gene 1 19 3360 1.1856530840021269 false 62584 1.1856530840021269 true
gene 1 3477 42 -0.9078307872773688 false 63111 -0.9078307872773688 true
gene 1 45 49 -2.789769057414059 false 63627 -2.789769057414059 true
gene 1 2 10998 7.299179581724231 false 64044 7.299179581724231 true
gene 1 10998 8569 -11.199299725724785 false 64045 -11.199299725724785 true
gene 1 53 41 6.321657302152775 true 64861 6.321657302152775 true
gene 1 48 11336 -1.7880255848850788 true 65711 -1.7880255848850788 true
gene 1 11336 47 0.9605873033193879 false 65712 0.9605873033193879 true
gene 1 8569 72 6.106255274293854 false 66927 6.106255274293854 true
gene 1 5742 7237 -0.7741158731890331 false 67482 -0.7741158731890331 true
gene 1 5475 856 -1.9564667128235833 false 68309 -1.9564667128235833 true
gene 1 4 4548 5.095546006671774 false 68822 5.095546006671774 true
gene 1 23 12031 -7.452485332119335 false 69377 -7.452485332119335 true
gene 1 12031 43 -1.7514400920685855 false 69378 -1.7514400920685855 true
gene 1 11 8137 -0.20800449739585702 false 69939 -0.20800449739585702 true
gene 1 6752 41 -5.133089670933917 false 70497 -5.133089670933917 true
gene 1 21 12283 2.179076377082003 false 70777 2.179076377082003 true
gene 1 12283 47 2.790249869651036 false 70778 2.790249869651036 true
gene 1 7 3477 1.2780714175752323 false 71080 1.2780714175752323 true
gene 1 16 12346 0.6979287008916304 false 71253 0.6979287008916304 true
gene 1 12346 49 -3.5995602689262807 false 71254 -3.5995602689262807 true
gene 1 26 74 -2.2759634159024262 false 71489 -2.2759634159024262 true
gene 1 6389 6389 2.6597669265086337 true 71744 2.6597669265086337 true
gene 1 4003 9305 0.44034080894800937 false 72474 0.44034080894800937 true
gene 1 45 12642 3.375719816947737 false 72766 3.375719816947737 true
gene 1 12642 53 -0.11017607484528685 false 72767 -0.11017607484528685 true
gene 1 6348 6559 -15.077953182342194 false 73271 -15.077953182342194 true
gene 1 30 6175 -2.548167423821176 false 73497 -2.548167423821176 true
gene 1 33 6348 -2.291533022779655 false 73751 -2.291533022779655 true
gene 1 714 12988 -0.3593415639604321 false 74578 -0.3593415639604321 true
gene 1 12988 43 -8.411408701718143 false 74579 -8.411408701718143 true
gene 1 4305 6389 -3.800838010279965 false 75272 -3.800838010279965 true
gene 1 30 6047 7.9662723347117215 false 75518 7.9662723347117215 true
gene 1 6642 48 -7.990614996553206 false 75784 -7.990614996553206 true
gene 1 35 76 -8.071350492228206 false 76458 -8.071350492228206 true
gene 1 7 13325 -0.507340867457841 false 76576 -0.507340867457841 true
gene 1 13325 45 -1.232509025748337 false 76577 -1.232509025748337 true
gene 1 24 6348 0.6084696937494875 false 76879 0.6084696937494875 true
gene 1 13 47 -2.6966846094815877 false 77256 -2.6966846094815877 true
gene 1 8743 6642 -6.188056796777275 false 77430 -6.188056796777275 true
gene 1 14 47 2.709002947289576 false 77928 2.709002947289576 true
gene 1 7 13648 -2.2279485018831933 false 78310 -2.2279485018831933 true
gene 1 13648 3477 4.600717967664983 false 78311 4.600717967664983 true
gene 1 5901 8137 -28.932838265605795 false 80086 -28.932838265605795 true
gene 1 36 1681 7.352602647492014 false 80355 7.352602647492014 true
gene 1 36 14063 3.53042676163458 false 80448 3.53042676163458 true
gene 1 14063 69 -2.3935346399155497 false 80449 -2.3935346399155497 true
gene 1 13325 72 0.22320256168575658 false 80935 0.22320256168575658 true
gene 1 44 44 3.5407804724563796 true 81216 3.5407804724563796 true
gene 1 39 8137 -8.197545474785306 false 81745 -8.197545474785306 true
gene 1 70 14330 2.727457557972021 true 81961 2.727457557972021 true
gene 1 14330 51 4.396364351052202 false 81962 4.396364351052202 true
gene 1 8450 4548 -0.7330514094799628 false 83344 -0.7330514094799628 true
gene 1 52 14653 -0.33781415674940796 false 83596 -0.33781415674940796 true
gene 1 14653 69 0.09481581240223175 false 83597 0.09481581240223175 true
gene 1 73 14750 6.558497243115284 true 84072 6.558497243115284 true
gene 1 14750 53 3.7195821564247176 false 84073 3.7195821564247176 true
gene 1 4 14795 -10.876836655883416 false 84321 -10.876836655883416 true
gene 1 14795 53 10.475797707698872 false 84322 10.475797707698872 true
gene 1 21 73 0.21368513176795767 false 84846 0.21368513176795767 true
gene 1 2346 183 -1.5024396643166913 false 85791 -1.5024396643166913 true
gene 1 8569 73 -3.639527134459796 false 86056 -3.639527134459796 true
gene 1 24 15300 3.632189605110093 false 86798 3.632189605110093 true
gene 1 15300 77 8.189326510276329 false 86799 8.189326510276329 true
gene 1 39 13648 5.461206508702171 false 87284 5.461206508702171 true
gene 1 12988 76 2.6706683241202653 false 87545 2.6706683241202653 true
gene 1 3 1205 1.5260419319788006 false 87710 1.5260419319788006 true
gene 1 43 12642 2.4676469747462573 false 88123 2.4676469747462573 true
gene 1 12346 77 1.2484269765545597 false 88620 1.2484269765545597 true
gene 1 5901 15706 12.751676921375571 false 89116 12.751676921375571 true
gene 1 15706 40 0.7173337276623959 false 89117 0.7173337276623959 true
gene 1 11336 14063 8.051743059559266 false 89364 8.051743059559266 true
gene 1 29 15866 -7.284378142324676 false 89969 -7.284378142324676 true
gene 1 15866 43 4.047521289569002 false 89970 4.047521289569002 true
gene 1 33 71 -3.8111448187238977 false 90221 -3.8111448187238977 true
gene 1 5901 5901 1.9072973365026202 true 90482 1.9072973365026202 true
gene 1 21 14750 5.610179207750592 false 91202 5.610179207750592 true
gene 1 37 14795 0.4312141222889809 false 91749 0.4312141222889809 true
gene 1 12346 50 10.752114554103187 false 92003 10.752114554103187 true
gene 1 15300 4548 5.209492317264962 false 92286 5.209492317264962 true
gene 1 17 12031 0.2780791719056743 false 92524 0.2780791719056743 true
gene 1 12346 16361 13.839707565744902 false 92627 13.839707565744902 true
gene 1 16361 77 0.020620875621444323 false 92628 0.020620875621444323 true
gene 1 4 16458 -1.8983341445938477 false 93165 -1.8983341445938477 true
gene 1 16458 73 -6.915666154026402 false 93166 -6.915666154026402 true
gene 1 7 8137 -3.980418018579421 false 94263 -3.980418018579421 true
gene 1 34 16788 -2.8510250439375877 false 94816 -2.8510250439375877 true
gene 1 16788 52 -0.1004857544023785 false 94817 -0.1004857544023785 true
gene 1 13325 74 5.673422618792126 false 95359 5.673422618792126 true
gene 1 31 16941 1.955408560068779 false 95640 1.955408560068779 true
gene 1 16941 74 3.5156990084224873 false 95641 3.5156990084224873 true
gene 1 1205 14330 -20.62788696035726 false 96462 -20.62788696035726 true
gene 1 36 6752 1.7968157386214456 false 96754 1.7968157386214456 true
gene 1 10428 14750 3.262838430159534 false 97045 3.262838430159534 true
gene 1 15866 2346 0.18338485689971507 false 97326 0.18338485689971507 true
gene 1 10998 49 3.0478860352606865 false 97615 3.0478860352606865 true
gene 1 16361 47 3.3778984543629056 false 97909 3.3778984543629056 true
gene 1 45 17374 3.8777600493734274 false 98090 3.8777600493734274 true
gene 1 17374 51 4.0384459939788355 false 98091 4.0384459939788355 true
gene 1 3 12988 7.029179905084919 false 98348 7.029179905084919 true
gene 1 3 136 4.143570937615797 false 99477 4.143570937615797 true
gene 1 12988 5901 -8.368177897066268 false 99695 -8.368177897066268 true
gene 1 5742 3237 -2.5655878337998526 false 100214 -2.5655878337998526 true
gene 1 4 17847 -2.573384041890168 false 100507 -2.573384041890168 true
gene 1 17847 77 -1.685503599239505 false 100508 -1.685503599239505 true
gene 1 6348 2346 -2.4477210032621723 false 100807 -2.4477210032621723 true
gene 1 8018 8018 2.197096660731801 true 101094 2.197096660731801 true
gene 1 3477 44 4.542493311770512 false 101687 4.542493311770512 true
gene 1 12 14063 0.47071148489008385 false 102791 0.47071148489008385 true
gene 1 856 136 -0.9988454433448145 false 103074 -0.9988454433448145 true
gene 1 16941 51 6.018979039996811 false 103353 6.018979039996811 true
gene 1 8743 8743 -5.8091884535173195 true 103503 -5.8091884535173195 true
gene 1 23 18435 -0.3130524901848039 false 103746 -0.3130524901848039 true
gene 1 18435 70 -0.25532108300471834 false 103747 -0.25532108300471834 true
gene 1 28 18554 0.1519537340350392 false 104381 0.1519537340350392 true
gene 1 18554 77 -0.42840226756632716 false 104382 -0.42840226756632716 true
gene 1 52 8450 9.370484595125014 false 104975 9.370484595125014 true
gene 1 13 9305 1.4919426105615574 false 106010 1.4919426105615574 true
gene 1 23 18900 3.874273000963792 false 106266 3.874273000963792 true
gene 1 18900 714 -5.332322284930456 false 106267 -5.332322284930456 true
gene 1 5901 19008 0.36057230352920117 true 106830 0.36057230352920117 true
gene 1 19008 5901 0.45972670270781424 false 106831 0.45972670270781424 true
gene 1 76 19159 1.4027686692427443 false 107663 1.4027686692427443 true
gene 1 19159 8137 2.3366778886022352 false 107664 2.3366778886022352 true
gene 1 5 19226 4.1726871488154895 false 107964 4.1726871488154895 true
gene 1 19226 50 5.212076422466032 false 107965 5.212076422466032 true
gene 1 14795 6348 10.467549381172402 false 108224 10.467549381172402 true
gene 1 70 19372 1.8652536446830106 true 108724 1.8652536446830106 true
gene 1 19372 48 -3.697272097917677 false 108725 -3.697272097917677 true
gene 1 14 19577 -10.000868636678112 false 109787 -10.000868636678112 true
gene 1 19577 42 1.2011966996141943 false 109788 1.2011966996141943 true
gene 1 18 6559 5.287246115990851 false 110493 5.287246115990851 true
gene 1 46 19771 -1.6977859263169481 false 110760 -1.6977859263169481 true
gene 1 19771 76 -0.391399367498926 false 110761 -0.391399367498926 true
gene 1 49 8137 -4.91199655917802 false 111037 -4.91199655917802 true
gene 1 6175 16458 -2.8929706530315737 false 111371 -2.8929706530315737 true
gene 1 77 19946 -4.950459670001999 true 111637 -4.950459670001999 true
gene 1 19946 39 -9.315077382651948 false 111638 -9.315077382651948 true
gene 1 4003 13325 -2.100890508126124 false 111946 -2.100890508126124 true
gene 1 20 12346 -1.1450116336711964 false 112054 -1.1450116336711964 true
gene 1 75 20031 3.8112364135531624 true 112258 3.8112364135531624 true
gene 1 20031 39 0.25858342078255037 false 112259 0.25858342078255037 true
gene 1 14653 71 0.5689921576648875 false 112513 0.5689921576648875 true
gene 1 17 11336 2.207881615197195 false 112809 2.207881615197195 true
gene 1 13 8137 8.841978552051238 false 113253 8.841978552051238 true
gene 1 70 20352 -13.95336930885376 false 113973 -13.95336930885376 true
gene 1 20352 72 -0.1453828946672544 false 113974 -0.1453828946672544 true
gene 1 346 11336 -0.7000731863944433 false 115227 -0.7000731863944433 true
gene 1 12 76 -6.605231913600556 false 115754 -6.605231913600556 true
gene 1 1 346 5.019575420994354 false 116026 5.019575420994354 true
gene 1 53 20864 -5.98373962164117 true 116585 -5.98373962164117 true
gene 1 20864 41 -8.87500979395001 false 116586 -8.87500979395001 true
gene 1 21 21010 1.8642852272866661 false 117495 1.8642852272866661 true
gene 1 21010 14750 -0.49166901864609214 false 117496 -0.49166901864609214 true
gene 1 4 21063 0.13132653330294253 false 117764 0.13132653330294253 true
gene 1 21063 71 -1.739272001274052 false 117765 -1.739272001274052 true
gene 1 32 52 1.6059541240988136 false 118279 1.6059541240988136 true
gene 1 51 21349 -3.086707931704177 true 119139 -3.086707931704177 true
gene 1 21349 346 -10.774345995798862 false 119140 -10.774345995798862 true
gene 1 6 8018 -1.5262294338495126 false 119432 -1.5262294338495126 true
gene 1 14653 18900 -4.632418326172543 false 119723 -4.632418326172543 true
gene 1 16 21517 7.9716628820585225 false 119985 7.9716628820585225 true
gene 1 21517 70 5.594325817287371 false 119986 5.594325817287371 true
gene 1 10998 18554 6.125150183251552 false 121064 6.125150183251552 true
gene 1 12346 15706 2.026169418148 false 121356 2.026169418148 true
gene 1 29 21517 0.0429505549943614 false 121650 0.0429505549943614 true
gene 1 11 21982 2.142627553679594 false 122411 2.142627553679594 true
gene 1 21982 6047 -11.722497798553938 false 122412 -11.722497798553938 true
gene 1 4895 16458 -0.9143491019476514 false 122846 -0.9143491019476514 true
gene 1 12283 10998 -1.7640761087539452 false 122953 -1.7640761087539452 true
gene 1 11336 8569 -4.367229687415626 false 123175 -4.367229687415626 true
gene 1 9305 20864 1.9611498207875209 false 123344 1.9611498207875209 true
gene 1 6 5742 8.598446204308154 false 124361 8.598446204308154 true
gene 1 4305 22540 -2.7544311151650014 false 125454 -2.7544311151650014 true
gene 1 22540 6130 -6.304053784091216 false 125455 -6.304053784091216 true
gene 1 20031 10998 4.440872189943859 false 126026 4.440872189943859 true
gene 1 11 15300 -7.595766384944634 false 127210 -7.595766384944634 true
gene 1 19 2346 -9.993875535901152 false 127915 -9.993875535901152 true
gene 1 19159 53 1.6479493377667667 false 129903 1.6479493377667667 true
gene 1 42 9305 1.177106399693061 false 130155 1.177106399693061 true
gene 1 6130 136 -2.1663988754424715 false 130443 -2.1663988754424715 true
gene 1 5475 23680 1.7356080827173428 false 131503 1.7356080827173428 true
gene 1 23680 5901 7.146887801070587 false 131504 7.146887801070587 true
gene 1 10998 7237 -5.180174752258305 false 131784 -5.180174752258305 true
gene 1 3360 4443 1.2265842216839182 false 133093 1.2265842216839182 true
gene 1 6752 21517 -0.08718041241528052 false 133347 -0.08718041241528052 true
gene 1 20864 76 -0.8922815041087242 false 133898 -0.8922815041087242 true
gene 1 74 24179 1.6243412765820517 true 134332 1.6243412765820517 true
gene 1 24179 69 -0.9758000956870638 false 134333 -0.9758000956870638 true
gene 1 51 14750 -0.3426085026293297 false 135033 -0.3426085026293297 true
gene 1 5 24360 -1.2271636796485306 false 135272 -1.2271636796485306 true
gene 1 24360 72 -1.8076038669122767 false 135273 -1.8076038669122767 true
gene 1 346 53 4.026478054661392 false 136260 4.026478054661392 true
gene 1 6389 52 -0.3128718235273411 false 136527 -0.3128718235273411 true
gene 1 70 73 0.5479363036120657 false 136793 0.5479363036120657 true
gene 1 30 24755 1.0048613373229909 false 137337 1.0048613373229909 true
gene 1 24755 6175 -1.8207557586026923 false 137338 -1.8207557586026923 true
gene 1 856 183 -2.477897448861898 false 138066 -2.477897448861898 true
gene 1 22 24945 -4.857557118472318 false 138364 -4.857557118472318 true
gene 1 24945 72 -10.211725818884416 false 138365 -10.211725818884416 true
gene 1 12642 1205 -1.2802196947073252 false 138616 -1.2802196947073252 true
gene 1 12031 24179 -0.3024968172927709 false 138879 -0.3024968172927709 true
gene 1 12 42 0.7982967734213975 false 139151 0.7982967734213975 true
gene 1 28 25136 -3.27647652471099 false 139402 -3.27647652471099 true
gene 1 25136 39 -0.7488013602620609 false 139403 -0.7488013602620609 true
gene 1 183 20031 -2.349885787305582 false 139585 -2.349885787305582 true
gene 1 1 25166 4.465373879216141 false 139683 4.465373879216141 true
gene 1 25166 346 -2.517648571296108 false 139684 -2.517648571296108 true
gene 1 6 6348 3.027892138753848 false 140446 3.027892138753848 true
gene 1 76 25335 -4.1474112827035245 false 140672 -4.1474112827035245 true
gene 1 25335 19159 0.024169663870812652 false 140673 0.024169663870812652 true
gene 1 41 41 3.8353890320074138 true 141099 3.8353890320074138 true
gene 1 6130 6130 -1.4926528471114962 true 141339 -1.4926528471114962 true
gene 1 4548 21517 0.7493467824609218 false 141591 0.7493467824609218 true
gene 1 28 4779 -6.293897743628452 false 141826 -6.293897743628452 true
gene 1 14330 70 0.9972228621565471 false 143232 0.9972228621565471 true
gene 1 32 11336 0.9104693968451643 false 143515 0.9104693968451643 true
gene 1 25136 23680 -6.574993150425321 false 144009 -6.574993150425321 true
gene 1 5 26037 -1.1194513704815556 false 144526 -1.1194513704815556 true
gene 1 26037 6642 2.862394972787503 false 144527 2.862394972787503 true
gene 1 15 8569 -3.8959471059327946 false 145678 -3.8959471059327946 true
gene 1 26 20864 1.6201365556949836 false 147024 1.6201365556949836 true
gene 1 1 26626 0.21127467190036942 false 147555 0.21127467190036942 true
gene 1 26626 47 -1.0200003489291234 false 147556 -1.0200003489291234 true
gene 1 7237 46 -1.7006966909520003 false 147823 -1.7006966909520003 true
gene 1 24179 24179 1.9964057826272785 true 148114 1.9964057826272785 true
gene 1 136 12031 0.5372350158678094 false 148649 0.5372350158678094 true
gene 1 32 71 -3.173370639168751 false 148916 -3.173370639168751 true
gene 1 23680 21063 -1.7307149848688148 false 149535 -1.7307149848688148 true
gene 1 75 14330 0.004031874231753737 false 149813 0.004031874231753737 true
gene 1 12031 49 -2.9989160145479326 false 150232 -2.9989160145479326 true
gene 1 18435 27167 -2.929768305236883 false 150474 -2.929768305236883 true
gene 1 27167 70 -0.7342084716142401 false 150475 -0.7342084716142401 true
gene 1 35 48 2.512515585237329 false 150883 2.512515585237329 true
gene 1 74 74 -0.3013413501184925 true 151393 -0.3013413501184925 true
gene 1 6389 27482 -1.2018538328780064 true 151966 -1.2018538328780064 true
gene 1 27482 6389 -1.7439892804496167 false 151967 -1.7439892804496167 true
gene 1 5742 20031 2.009568550146045 false 152516 2.009568550146045 true
gene 1 13325 5431 -4.751886426660158 false 154157 -4.751886426660158 true
gene 1 75 27960 -0.22749167533766268 true 154656 -0.22749167533766268 true
gene 1 27960 45 -0.22694709760468523 false 154657 -0.22694709760468523 true
gene 1 8 11336 -4.364206325600148 false 155156 -4.364206325600148 true
gene 1 15 7237 0.4305540241168502 false 155376 0.4305540241168502 true
gene 1 14653 28151 2.238476756221383 false 155603 2.238476756221383 true
gene 1 28151 18900 -0.9487857869301006 false 155604 -0.9487857869301006 true
gene 1 24755 24179 0.3599594922307646 false 155869 0.3599594922307646 true
gene 1 18 24360 -0.0977979719088069 false 156121 -0.0977979719088069 true
gene 1 19577 12642 -0.3346844008316189 false 156384 -0.3346844008316189 true
gene 1 4 28409 1.015666114038968 false 156958 1.015666114038968 true
gene 1 28409 16458 -0.049932096837913775 false 156959 -0.049932096837913775 true
gene 1 45 8743 0.08149836024146939 false 158324 0.08149836024146939 true
gene 1 9 28713 -2.4795451371900006 false 158576 -2.4795451371900006 true
gene 1 28713 44 2.298856226297326 false 158577 2.298856226297326 true
gene 1 30 28883 -2.3622976130385345 false 159440 -2.3622976130385345 true
gene 1 28883 183 -2.732191667254793 false 159441 -2.732191667254793 true
gene 1 18 28994 -1.7388495730237883 false 160082 -1.7388495730237883 true
gene 1 28994 51 -2.9453114180094944 false 160083 -2.9453114180094944 true
gene 1 50 76 1.6102730181838711 false 160842 1.6102730181838711 true
gene 1 1 39 0.1588057298908354 false 161100 0.1588057298908354 true
gene 1 10998 26037 -0.8931022364290556 false 161372 -0.8931022364290556 true
gene 1 19 39 -0.034307743703764104 false 161633 -0.034307743703764104 true
gene 1 8450 24755 -2.701611492239077 false 161927 -2.701611492239077 true
gene 1 25136 29418 -1.4762327269949735 false 162215 -1.4762327269949735 true
gene 1 29418 23680 -0.610548592721212 false 162216 -0.610548592721212 true
gene 1 42 17847 0.3118490972037541 false 162764 0.3118490972037541 true
gene 1 25 74 -0.6816802957952367 false 163353 -0.6816802957952367 true
gene 1 28 29841 2.8947093585521073 false 164400 2.8947093585521073 true
gene 1 29841 47 1.9360104768231423 false 164401 1.9360104768231423 true
gene 1 36 4003 1.0992923785192439 false 164914 1.0992923785192439 true
gene 1 18435 4895 -1.4472434234001117 false 165382 -1.4472434234001117 true
gene 1 49 30059 1.694777429861843 true 165674 1.694777429861843 true
gene 1 30059 47 0.16887330061986364 false 165675 0.16887330061986364 true
gene 1 4548 47 0.8419546517205794 false 165946 0.8419546517205794 true
gene 1 33 11336 2.136846898110261 false 166296 2.136846898110261 true
gene 1 33 30313 0.8084988590470181 false 167012 0.8084988590470181 true
gene 1 30313 4003 -0.9699170589620937 false 167013 -0.9699170589620937 true
gene 1 23680 6389 -0.8043033872917933 false 167497 -0.8043033872917933 true
gene 1 28713 51 1.69736274706555 false 167996 1.69736274706555 true
gene 1 20864 20864 -1.2547031507968338 true 168270 -1.2547031507968338 true
gene 1 77 30680 -1.2185256905636992 true 169036 -1.2185256905636992 true
gene 1 30680 19946 -2.120252402453151 false 169037 -2.120252402453151 true
gene 1 21063 10140 2.4028159539372664 false 169330 2.4028159539372664 true
gene 1 28409 26037 0.2010054786984351 false 169784 0.2010054786984351 true
gene 1 4 16788 3.346000677928338 false 170544 3.346000677928338 true
gene 1 23 19372 -5.963729484692379 false 170701 -5.963729484692379 true
gene 1 50 31008 1.7027341288063957 false 170919 1.7027341288063957 true
gene 1 31008 76 0.026660007324812274 false 170920 0.026660007324812274 true
gene 1 41 31065 -2.153900506155529 false 171211 -2.153900506155529 true
gene 1 31065 53 -0.7259957686775316 false 171212 -0.7259957686775316 true
gene 1 19226 76 1.5938066482663444 false 171406 1.5938066482663444 true
gene 1 15300 15300 -0.23890359135155592 true 171955 -0.23890359135155592 true
gene 1 9 31293 1.504816223872541 false 172363 1.504816223872541 true
gene 1 31293 73 -0.5489222654528639 false 172364 -0.5489222654528639 true
gene 1 28409 72 1.2012998349358646 false 172682 1.2012998349358646 true
gene 1 23 31515 2.174303859827681 false 173473 2.174303859827681 true
gene 1 31515 45 1.051879267786097 false 173474 1.051879267786097 true
gene 1 70 31668 -0.1552447152110984 true 174292 -0.1552447152110984 true
gene 1 31668 51 1.9837442185220762 false 174293 1.9837442185220762 true
gene 1 4548 4548 0.5733900140058779 true 174556 0.5733900140058779 true
gene 1 26 4895 0.2052068124759178 false 174839 0.2052068124759178 true
gene 1 5 16941 -4.196991168599327 false 175115 -4.196991168599327 true
gene 1 4 31891 2.9326519446250696 false 175366 2.9326519446250696 true
gene 1 31891 53 2.1576927101129924 false 175367 2.1576927101129924 true
gene 1 41 16361 1.1912868131877197 false 175832 1.1912868131877197 true
gene 1 4443 17847 -1.451479264610081 false 176100 -1.451479264610081 true
gene 1 70 32096 -0.5063842239749754 true 176536 -0.5063842239749754 true
gene 1 32096 5475 1.8226149665228122 false 176537 1.8226149665228122 true
gene 1 12988 11336 -2.451471443955465 false 176820 -2.451471443955465 true
gene 1 15 31065 -1.0025991217888357 false 177429 -1.0025991217888357 true
gene 1 4 32342 -1.6407875676117385 false 177868 -1.6407875676117385 true
gene 1 32342 45 2.7507212603325355 false 177869 2.7507212603325355 true
gene 1 14330 14330 1.3213635174678497 true 178810 1.3213635174678497 true
gene 1 23680 32577 -1.129588903088579 false 179046 -1.129588903088579 true
gene 1 32577 5901 1.6434462669486087 false 179047 1.6434462669486087 true
gene 1 4305 9305 7.444381440152003 false 179540 7.444381440152003 true
gene 1 2 32771 -1.5947354118896588 false 180075 -1.5947354118896588 true
gene 1 32771 10998 -0.9911979908561731 false 180076 -0.9911979908561731 true
gene 1 17 32815 -1.3477430755822637 false 180338 -1.3477430755822637 true
gene 1 32815 12031 3.8442509382355645 false 180339 3.8442509382355645 true
gene 1 8 74 -1.0053239498656248 false 180616 -1.0053239498656248 true
gene 1 31891 32342 0.3444124589628127 false 181172 0.3444124589628127 true
gene 1 6559 6559 2.098733548703466 true 182295 2.098733548703466 true
gene 1 27 33258 1.3811079558116826 false 182758 1.3811079558116826 true
gene 1 33258 4305 -0.2595579084962142 false 182759 -0.2595579084962142 true
gene 1 16361 16361 2.888377095749615 true 183207 2.888377095749615 true
gene 1 10998 19771 -0.6490992677197797 false 183733 -0.6490992677197797 true
gene 1 10 33542 -0.7440836126053445 false 184237 -0.7440836126053445 true
gene 1 33542 51 0.1559544450189308 false 184238 0.1559544450189308 true
gene 1 24 52 -0.5898867932493442 false 184929 -0.5898867932493442 true
gene 1 13325 7237 -0.9689497360721631 false 185729 -0.9689497360721631 true
gene 1 11336 19372 -0.21678687582470668 false 185994 -0.21678687582470668 true
gene 1 40 24755 -4.281681745080283 false 186264 -4.281681745080283 true
gene 1 8569 24179 0.19150924673905068 false 187038 0.19150924673905068 true
gene 1 7 10998 -2.1508361188229204 false 187170 -2.1508361188229204 true
gene 1 15 34127 3.1054681570290157 false 187405 3.1054681570290157 true
gene 1 34127 7237 0.15930264314138712 false 187406 0.15930264314138712 true
gene 1 26 31293 2.2602059458171326 false 187965 2.2602059458171326 true
gene 1 4003 34273 -3.2257585566300007 false 188187 -3.2257585566300007 true
gene 1 34273 71 -4.0162361062663425 false 188188 -4.0162361062663425 true
gene 1 346 69 -1.5223228258100043 false 188651 -1.5223228258100043 true
gene 1 20352 29841 -2.8171003284950284 false 189141 -2.8171003284950284 true
gene 1 11336 30059 -1.4273532831125633 false 189983 -1.4273532831125633 true
gene 1 32771 33542 -0.39658473782642806 false 190254 -0.39658473782642806 true
gene 1 15866 183 -0.666998834786335 false 190511 -0.666998834786335 true
gene 1 27167 21063 -0.8794361779697413 false 190792 -0.8794361779697413 true
gene 1 15 21349 -1.8734202641884714 false 191396 -1.8734202641884714 true
gene 1 33542 16941 0.5359723067910376 false 191690 0.5359723067910376 true
gene 1 5431 6752 -0.9333504416148961 false 192208 -0.9333504416148961 true
gene 1 24755 35127 2.9021175668583292 false 192628 2.9021175668583292 true
gene 1 35127 24179 -1.7601263706110442 false 192629 -1.7601263706110442 true
gene 1 8743 70 1.5159959368838407 false 194486 1.5159959368838407 true
gene 1 346 28713 0.6676590122956566 false 195560 0.6676590122956566 true
gene 1 47 35880 1.339183384641458 false 196609 1.339183384641458 true
gene 1 35880 74 1.3065616059962664 false 196610 1.3065616059962664 true
gene 1 15300 70 -0.32382011961686025 false 196887 -0.32382011961686025 true
gene 1 27960 9305 -3.1340595947895276 false 197186 -3.1340595947895276 true
gene 1 6642 8018 1.5097170753370008 false 197655 1.5097170753370008 true
gene 1 28883 24945 -1.0987913312823898 false 197900 -1.0987913312823898 true
gene 1 70 36194 -1.3583044530284947 false 198183 -1.3583044530284947 true
gene 1 36194 20352 -1.2111672299553051 false 198184 -1.2111672299553051 true
gene 1 37 36304 -2.426911499716582 false 198782 -2.426911499716582 true
gene 1 36304 41 0.5075201594299918 false 198783 0.5075201594299918 true
gene 1 75 36353 1.344528302868102 true 199027 1.344528302868102 true
gene 1 36353 20031 0.30992370206433345 false 199028 0.30992370206433345 true
gene 1 18435 36411 0.45722777556245425 false 199298 0.45722777556245425 true
gene 1 36411 27167 1.6186861120545177 false 199299 1.6186861120545177 true
gene 1 28 36465 2.171774869049503 false 199560 2.171774869049503 true
gene 1 36465 39 -0.012693100462767224 false 199561 -0.012693100462767224 true
gene 1 18435 28713 -0.7886637231200578 false 200345 -0.7886637231200578 true
gene 1 34 15866 0.581795928048825 false 200865 0.581795928048825 true
gene 1 13 36737 -1.425093073370445 false 201114 -1.425093073370445 true
gene 1 36737 40 -0.37951230190619695 false 201115 -0.37951230190619695 true
gene 1 12346 36937 1.3745164495428956 false 202139 1.3745164495428956 true
gene 1 36937 50 0.8525178884104935 false 202140 0.8525178884104935 true
gene 1 16458 21517 -2.5849243430772284 false 202389 -2.5849243430772284 true
gene 1 30 72 -0.7243846266904339 false 203532 -0.7243846266904339 true
gene 1 50 34273 0.1885770342458799 false 204107 0.1885770342458799 true
gene 1 33258 33542 -2.142955805167387 false 204660 -2.142955805167387 true
gene 1 2 44 0.1516928343266012 false 204943 0.1516928343266012 true
gene 1 7 37578 0.09346711264498257 false 205480 0.09346711264498257 true
gene 1 37578 41 3.29185694208236 false 205481 3.29185694208236 true
gene 1 45 45 -0.8278653932871419 true 206565 -0.8278653932871419 true
gene 1 21063 3477 1.6147321058932451 false 207569 1.6147321058932451 true
gene 1 5 37980 -1.5115806946769594 false 207756 -1.5115806946769594 true
gene 1 37980 40 1.0928131821244667 false 207757 1.0928131821244667 true
gene 1 9 38092 1.3787880407335817 false 208218 1.3787880407335817 true
gene 1 38092 28713 -0.23322128841697265 false 208219 -0.23322128841697265 true
gene 1 19 21982 4.4919701683721085 false 208686 4.4919701683721085 true
gene 1 3360 24755 2.9554414525329893 false 209153 2.9554414525329893 true
gene 1 14330 38298 1.3192871839329818 false 209383 1.3192871839329818 true
gene 1 38298 70 -0.26512017604118754 false 209384 -0.26512017604118754 true
gene 1 53 38372 -0.7739788454264562 false 209732 -0.7739788454264562 true
gene 1 38372 70 -0.3883867203410174 false 209733 -0.3883867203410174 true
gene 1 5 35880 0.9896559444051227 false 210257 0.9896559444051227 true
gene 1 17374 6047 -3.2068544803163754 false 211399 -3.2068544803163754 true
gene 1 7401 38892 -0.8766564212909134 false 212270 -0.8766564212909134 true
gene 1 38892 51 0.3806634175924726 false 212271 0.3806634175924726 true
gene 1 19008 36411 1.7150953657314034 false 212977 1.7150953657314034 true
gene 1 42 39084 0.2372385283413022 false 213421 0.2372385283413022 true
gene 1 39084 50 1.5238929620103834 false 213422 1.5238929620103834 true
gene 1 39 39253 -1.4634449147100077 false 214320 -1.4634449147100077 true
gene 1 39253 42 -2.990839063149188 false 214321 -2.990839063149188 true
gene 1 14 4895 0.10682540710111299 false 215208 0.10682540710111299 true
gene 1 19946 32342 -3.3113388854062045 false 216021 -3.3113388854062045 true
gene 1 12642 31668 -1.1767125308652349 false 216273 -1.1767125308652349 true
gene 1 19577 39731 -2.083553654905597 false 216822 -2.083553654905597 true
gene 1 39731 42 2.7972939321624324 false 216823 2.7972939321624324 true
gene 1 21982 34273 -4.324241458260859 false 217340 -4.324241458260859 true
gene 1 49 49 -2.0012097169801244 true 218403 -2.0012097169801244 true
gene 1 14750 72 -0.8038731426310218 false 218631 -0.8038731426310218 true
gene 1 24360 8450 -3.458295516668639 false 219685 -3.458295516668639 true
gene 1 20864 40297 -0.9475078497308408 false 219949 -0.9475078497308408 true
gene 1 40297 76 -2.215279086229478 false 219950 -2.215279086229478 true
gene 1 47 19226 10.696222306451626 false 220220 10.696222306451626 true
genomeend 0
