genomestart 217
trait 1 0 0.14472644800355028 0 0 0.05821246899734553 0.031072582086332082 0 0
node 1 1 1 1 LinearActivation
node 2 1 1 1 LinearActivation
node 3 1 1 1 LinearActivation
node 4 1 1 1 LinearActivation
node 5 1 1 1 LinearActivation
node 6 1 1 1 LinearActivation
node 7 1 1 1 LinearActivation
node 8 1 1 1 LinearActivation
node 9 1 1 1 LinearActivation
node 10 1 1 1 LinearActivation
node 11 1 1 1 LinearActivation
node 12 1 1 1 LinearActivation
node 13 1 1 1 LinearActivation
node 14 1 1 1 LinearActivation
node 15 1 1 1 LinearActivation
node 16 1 1 1 LinearActivation
node 17 1 1 1 LinearActivation
node 18 1 1 1 LinearActivation
node 19 1 1 1 LinearActivation
node 20 1 1 1 LinearActivation
node 21 1 1 1 LinearActivation
node 22 1 1 1 LinearActivation
node 23 1 1 1 LinearActivation
node 24 1 1 1 LinearActivation
node 25 1 1 1 LinearActivation
node 26 1 1 1 LinearActivation
node 27 1 1 1 LinearActivation
node 28 1 1 1 LinearActivation
node 29 1 1 1 LinearActivation
node 30 1 1 1 LinearActivation
node 31 1 1 1 LinearActivation
node 32 1 1 1 LinearActivation
node 33 1 1 1 LinearActivation
node 34 1 1 1 LinearActivation
node 35 1 1 1 LinearActivation
node 36 1 1 1 LinearActivation
node 37 1 1 1 LinearActivation
node 38 1 1 3 LinearActivation
node 39 1 0 0 TanhActivation
node 40 1 0 0 TanhActivation
node 41 1 0 0 TanhActivation
node 42 1 0 0 TanhActivation
node 43 1 0 0 TanhActivation
node 44 1 0 0 TanhActivation
node 45 1 0 0 TanhActivation
node 46 1 0 0 TanhActivation
node 47 1 0 0 TanhActivation
node 48 1 0 0 TanhActivation
node 59 1 0 2 SigmoidSteepenedActivation
node 60 1 0 2 SigmoidSteepenedActivation
node 61 1 0 2 SigmoidSteepenedActivation
node 62 1 0 2 SigmoidSteepenedActivation
node 79 1 0 0 SigmoidBipolarActivation
node 131 1 0 0 GaussianBipolarActivation
node 181 1 0 0 LinearAbsActivation
node 448 1 0 0 GaussianBipolarActivation
node 568 1 0 0 GaussianBipolarActivation
node 1082 1 0 0 SigmoidBipolarActivation
node 1198 1 0 0 SigmoidBipolarActivation
node 1352 1 0 0 SigmoidBipolarActivation
node 1803 1 0 0 GaussianBipolarActivation
node 2022 1 0 0 LinearAbsActivation
node 2056 1 0 0 GaussianBipolarActivation
node 2267 1 0 0 GaussianBipolarActivation
gene 1 2 39 0.8672666657506174 false 2357 0.8672666657506174 true
gene 1 8 39 1.0053274650582347 false 2363 1.0053274650582347 true
gene 1 10 39 0.5978528844364237 false 2365 0.5978528844364237 true
gene 1 17 39 -2.8903614000325497 false 2372 -2.8903614000325497 true
gene 1 19 39 -0.25781443431913253 false 2374 -0.25781443431913253 true
gene 1 24 39 -1.7136573905682186 false 2379 -1.7136573905682186 true
gene 1 26 39 0.5798296556821135 false 2381 0.5798296556821135 true
gene 1 27 39 -0.8210414030204776 false 2382 -0.8210414030204776 true
gene 1 30 39 3.3990633677960083 false 2385 3.3990633677960083 true
gene 1 31 39 0.9339892824400996 false 2386 0.9339892824400996 true
gene 1 33 39 -2.032289103061796 false 2388 -2.032289103061796 true
gene 1 37 39 -3.367995573048667 false 2392 -3.367995573048667 true
gene 1 1 40 1.8777405493743171 false 2418 1.8777405493743171 true
gene 1 2 40 1.6918049260920378 false 2419 1.6918049260920378 true
gene 1 4 40 -3.569117574245557 false 2421 -3.569117574245557 true
gene 1 6 40 -3.0933974653882768 false 2423 -3.0933974653882768 true
gene 1 8 40 2.2434378708694913 false 2425 2.2434378708694913 true
gene 1 13 40 -1.4184370672448194 false 2430 -1.4184370672448194 true
gene 1 16 40 0.3315408680308966 false 2433 0.3315408680308966 true
gene 1 19 40 -2.7492725792151314 false 2436 -2.7492725792151314 true
gene 1 20 40 0.7675274897866249 false 2437 0.7675274897866249 true
gene 1 25 40 0.19988983279144856 false 2442 0.19988983279144856 true
gene 1 32 40 0.9280390601140914 false 2449 0.9280390601140914 true
gene 1 33 40 1.729816930128198 false 2450 1.729816930128198 true
gene 1 35 40 0.03389113756475137 false 2452 0.03389113756475137 true
gene 1 2 41 0.002117408980617852 false 2481 0.002117408980617852 true
gene 1 3 41 -2.9031696371473297 false 2482 -2.9031696371473297 true
gene 1 6 41 -0.7194001090859632 false 2485 -0.7194001090859632 true
gene 1 12 41 -4.47854831704757 false 2491 -4.47854831704757 true
gene 1 16 41 -5.707112743166376 false 2495 -5.707112743166376 true
gene 1 28 41 -1.3611742833473892 false 2507 -1.3611742833473892 true
gene 1 29 41 -1.5666807927354336 false 2508 -1.5666807927354336 true
gene 1 36 41 -3.213423201179311 false 2515 -3.213423201179311 true
gene 1 2 42 2.83705938381626 false 2543 2.83705938381626 true
gene 1 3 42 1.9105949179354789 false 2544 1.9105949179354789 true
gene 1 8 42 1.8960475099936305 false 2549 1.8960475099936305 true
gene 1 14 42 -0.01271829866264812 false 2555 -0.01271829866264812 true
gene 1 15 42 1.451314528888107 false 2556 1.451314528888107 true
gene 1 18 42 0.6513976253259274 false 2559 0.6513976253259274 true
gene 1 19 42 1.4444843945352646 false 2560 1.4444843945352646 true
gene 1 25 42 -0.30382409399900046 false 2566 -0.30382409399900046 true
gene 1 27 42 -0.3577944906550815 false 2568 -0.3577944906550815 true
gene 1 5 43 -1.0953478789074915 false 2608 -1.0953478789074915 true
gene 1 13 43 3.452555141996306 false 2616 3.452555141996306 true
gene 1 14 43 -0.7686474473159599 false 2617 -0.7686474473159599 true
gene 1 17 43 0.2972956558566342 false 2620 0.2972956558566342 true
gene 1 20 43 -1.7108463011596111 false 2623 -1.7108463011596111 true
gene 1 29 43 0.8833175692231372 false 2632 0.8833175692231372 true
gene 1 32 43 -3.8519473204649652 false 2635 -3.8519473204649652 true
gene 1 34 43 3.9563063019372384 false 2637 3.9563063019372384 true
gene 1 39 43 -0.05871332533053941 false 2642 -0.05871332533053941 true
gene 1 3 44 -1.735918426140053 false 2668 -1.735918426140053 true
gene 1 9 44 -0.7442063036094707 false 2674 -0.7442063036094707 true
gene 1 18 44 -0.4629916868070232 false 2683 -0.4629916868070232 true
gene 1 22 44 1.807681912105203 false 2687 1.807681912105203 true
gene 1 30 44 -3.3839321674943363 false 2695 -3.3839321674943363 true
gene 1 38 44 -0.9941362049877781 false 2703 -0.9941362049877781 true
gene 1 39 44 -0.419225202340922 false 2704 -0.419225202340922 true
gene 1 40 44 -2.2558045181065514 false 2705 -2.2558045181065514 true
gene 1 41 44 1.1882396744422095 false 2706 1.1882396744422095 true
gene 1 10 45 -0.8571601036918253 false 2737 -0.8571601036918253 true
gene 1 11 45 1.2780776613381999 false 2738 1.2780776613381999 true
gene 1 18 45 -2.810487852290736 false 2745 -2.810487852290736 true
gene 1 24 45 -1.6771677338730524 false 2751 -1.6771677338730524 true
gene 1 26 45 -0.10209899902630681 false 2753 -0.10209899902630681 true
gene 1 29 45 -3.2111604332845474 false 2756 -3.2111604332845474 true
gene 1 30 45 -0.8293851986725306 false 2757 -0.8293851986725306 true
gene 1 33 45 -3.386989561388984 false 2760 -3.386989561388984 true
gene 1 35 45 1.942942486143313 false 2762 1.942942486143313 true
gene 1 40 45 0.599980019452846 false 2767 0.599980019452846 true
gene 1 44 45 2.057970503573083 false 2771 2.057970503573083 true
gene 1 7 46 3.5074997176177822 false 2796 3.5074997176177822 true
gene 1 15 46 -6.5204960460526635 false 2804 -6.5204960460526635 true
gene 1 16 46 0.1888816764478951 false 2805 0.1888816764478951 true
gene 1 17 46 -1.5410750154421802 false 2806 -1.5410750154421802 true
gene 1 19 46 -3.9534850845112253 false 2808 -3.9534850845112253 true
gene 1 21 46 3.24624207832483 false 2810 3.24624207832483 true
gene 1 22 46 2.170493574290218 false 2811 2.170493574290218 true
gene 1 23 46 2.245774519799462 false 2812 2.245774519799462 true
gene 1 34 46 2.179790543357349 false 2823 2.179790543357349 true
gene 1 40 46 0.6521795665783661 false 2829 0.6521795665783661 true
gene 1 42 46 2.768114558310361 false 2831 2.768114558310361 true
gene 1 1 47 0.6259818363554408 false 2852 0.6259818363554408 true
gene 1 2 47 1.2682124608854306 false 2853 1.2682124608854306 true
gene 1 4 47 -0.6601108420129921 false 2855 -0.6601108420129921 true
gene 1 7 47 2.545020711795364 false 2858 2.545020711795364 true
gene 1 8 47 0.9304292735393699 false 2859 0.9304292735393699 true
gene 1 9 47 -0.03307720877461329 false 2860 -0.03307720877461329 true
gene 1 29 47 1.0642110510253135 false 2880 1.0642110510253135 true
gene 1 30 47 0.6052039603752566 false 2881 0.6052039603752566 true
gene 1 32 47 1.9575524330033789 false 2883 1.9575524330033789 true
gene 1 33 47 -0.11499637117407774 false 2884 -0.11499637117407774 true
gene 1 35 47 3.277517970873052 false 2886 3.277517970873052 true
gene 1 36 47 4.507465612218591 false 2887 4.507465612218591 true
gene 1 37 47 2.547565336834096 false 2888 2.547565336834096 true
gene 1 43 47 0.6808049271037468 false 2894 0.6808049271037468 true
gene 1 44 47 0.26741478915627004 false 2895 0.26741478915627004 true
gene 1 6 48 0.9856992968098617 false 2919 0.9856992968098617 true
gene 1 11 48 2.0135286443198117 false 2924 2.0135286443198117 true
gene 1 12 48 -2.9591308625181143 false 2925 -2.9591308625181143 true
gene 1 17 48 -1.1260022636731688 false 2930 -1.1260022636731688 true
gene 1 20 48 2.3211853538640383 false 2933 2.3211853538640383 true
gene 1 30 48 0.8579989425670246 false 2943 0.8579989425670246 true
gene 1 35 48 -0.5060263315016942 false 2948 -0.5060263315016942 true
gene 1 36 48 1.9313595403673534 false 2949 1.9313595403673534 true
gene 1 37 48 1.4649694950638796 false 2950 1.4649694950638796 true
gene 1 39 48 0.4879483908964616 false 2952 0.4879483908964616 true
gene 1 40 48 0.07518721209981871 false 2953 0.07518721209981871 true
gene 1 42 48 0.4343168581645478 false 2955 0.4343168581645478 true
gene 1 44 48 2.9679905451311264 false 2957 2.9679905451311264 true
gene 1 2 59 0.7420151507934691 false 3597 0.7420151507934691 true
gene 1 5 59 -1.1621387967748245 false 3600 -1.1621387967748245 true
gene 1 10 59 -0.04292176985814444 false 3605 -0.04292176985814444 true
gene 1 17 59 -3.08295317994315 false 3612 -3.08295317994315 true
gene 1 18 59 -1.2360181383683237 false 3613 -1.2360181383683237 true
gene 1 22 59 2.429780761153674 false 3617 2.429780761153674 true
gene 1 34 59 -0.8879453889372428 false 3629 -0.8879453889372428 true
gene 1 39 59 -2.6727312914077754 false 3634 -2.6727312914077754 true
gene 1 40 59 1.3091361454348491 false 3635 1.3091361454348491 true
gene 1 44 59 -1.2153750433550863 false 3639 -1.2153750433550863 true
gene 1 45 59 0.6987106085519501 false 3640 0.6987106085519501 true
gene 1 1 60 0.7565126362934633 false 3658 0.7565126362934633 true
gene 1 5 60 1.170767015666136 false 3662 1.170767015666136 true
gene 1 7 60 0.4642004034860798 false 3664 0.4642004034860798 true
gene 1 13 60 1.897278182198746 false 3670 1.897278182198746 true
gene 1 15 60 -1.2021276474568685 false 3672 -1.2021276474568685 true
gene 1 19 60 -0.5071537234879678 false 3676 -0.5071537234879678 true
gene 1 22 60 1.807478933033558 false 3679 1.807478933033558 true
gene 1 25 60 2.3659091962303966 false 3682 2.3659091962303966 true
gene 1 26 60 0.9176316666698912 false 3683 0.9176316666698912 true
gene 1 29 60 -0.31998317745634375 false 3686 -0.31998317745634375 true
gene 1 31 60 0.546809580750462 false 3688 0.546809580750462 true
gene 1 37 60 0.3501642431058541 false 3694 0.3501642431058541 true
gene 1 38 60 1.2561574004626803 false 3695 1.2561574004626803 true
gene 1 4 61 2.296042510934596 false 3723 2.296042510934596 true
gene 1 6 61 0.4308479697905464 false 3725 0.4308479697905464 true
gene 1 14 61 6.2165360360556985 false 3733 6.2165360360556985 true
gene 1 17 61 -0.0693589878594788 false 3736 -0.0693589878594788 true
gene 1 27 61 1.695280987088502 false 3746 1.695280987088502 true
gene 1 37 61 -1.8698102209895615 false 3756 -1.8698102209895615 true
gene 1 40 61 0.6796700295203855 false 3759 0.6796700295203855 true
gene 1 43 61 -0.6181026953865297 false 3762 -0.6181026953865297 true
gene 1 47 61 -3.7645864988917577 false 3766 -3.7645864988917577 true
gene 1 48 61 -1.0159028196034796 false 3767 -1.0159028196034796 true
gene 1 59 61 -0.7178187898465722 false 3778 -0.7178187898465722 true
gene 1 2 62 -1.0917293553564276 false 3783 -1.0917293553564276 true
gene 1 4 62 -1.8900043520576455 false 3785 -1.8900043520576455 true
gene 1 9 62 -2.0110820401646397 false 3790 -2.0110820401646397 true
gene 1 15 62 -3.399089914055664 false 3796 -3.399089914055664 true
gene 1 18 62 0.08591557790591009 false 3799 0.08591557790591009 true
gene 1 19 62 -0.7937129453683845 false 3800 -0.7937129453683845 true
gene 1 23 62 -1.0691809268654875 false 3804 -1.0691809268654875 true
gene 1 28 62 1.9386761121420908 false 3809 1.9386761121420908 true
gene 1 31 62 1.095113226314183 false 3812 1.095113226314183 true
gene 1 33 62 0.7044174503226908 false 3814 0.7044174503226908 true
gene 1 34 62 0.1111922084078536 false 3815 0.1111922084078536 true
gene 1 39 62 0.21320405429964362 false 3820 0.21320405429964362 true
gene 1 43 62 -0.795307585102569 false 3824 -0.795307585102569 true
gene 1 47 62 -2.6714935112267897 false 3828 -2.6714935112267897 true
gene 1 21 79 1.9988756422355705 false 3895 1.9988756422355705 true
gene 1 79 46 -1.585619105269827 false 3896 -1.585619105269827 true
gene 1 24 131 -1.092802884722329 false 4159 -1.092802884722329 true
gene 1 131 39 -0.013449575281329396 false 4160 -0.013449575281329396 true
gene 1 36 181 -0.7694139758580398 false 4398 -0.7694139758580398 true
gene 1 181 41 1.5566467598739684 false 4399 1.5566467598739684 true
gene 1 27 62 -3.3678942826817226 false 5149 -3.3678942826817226 true
gene 1 15 181 0.6822392885670426 false 5320 0.6822392885670426 true
gene 1 5 46 -0.8039425921757104 false 5488 -0.8039425921757104 true
gene 1 24 46 -0.17890819235502892 false 5771 -0.17890819235502892 true
gene 1 24 448 -1.1291066022369924 false 5915 -1.1291066022369924 true
gene 1 448 39 1.9958735639176168 false 5916 1.9958735639176168 true
gene 1 1 44 2.2752147992536296 false 6246 2.2752147992536296 true
gene 1 59 59 7.05809005935457 true 6413 7.05809005935457 true
gene 1 35 568 0.1273652921556423 false 6561 0.1273652921556423 true
gene 1 568 40 0.30806902813909187 false 6562 0.30806902813909187 true
gene 1 10 43 -1.389495230825876 false 7082 -1.389495230825876 true
gene 1 39 39 -0.8453651495503307 true 7371 -0.8453651495503307 true
gene 1 21 59 2.137812582335676 false 7543 2.137812582335676 true
gene 1 2 46 -2.04086298419218 false 7902 -2.04086298419218 true
gene 1 36 62 -11.368397402759134 false 8372 -11.368397402759134 true
gene 1 11 40 1.8289022122112002 false 8851 1.8289022122112002 true
gene 1 5 1082 0.9534046179028126 false 9194 0.9534046179028126 true
gene 1 1082 59 0.42296649580809575 false 9195 0.42296649580809575 true
gene 1 10 448 -0.2842876648170753 false 9478 -0.2842876648170753 true
gene 1 38 568 2.2462940898271864 false 9658 2.2462940898271864 true
gene 1 24 1198 2.079804511815648 false 9802 2.079804511815648 true
gene 1 1198 448 -0.46714258248439683 false 9803 -0.46714258248439683 true
gene 1 10 568 -0.9956481479130389 false 10047 -0.9956481479130389 true
gene 1 1082 568 0.19628920804222097 false 10354 0.19628920804222097 true
gene 1 6 1352 0.7938015854227378 false 10687 0.7938015854227378 true
gene 1 1352 48 0.0746554700537278 false 10688 0.0746554700537278 true
gene 1 43 79 1.4171615930920607 false 11872 1.4171615930920607 true
gene 1 36 131 -1.615159192887195 false 12033 -1.615159192887195 true
gene 1 20 45 6.617688130043094 false 12225 6.617688130043094 true
gene 1 7 181 -1.8683357808866556 false 12564 -1.8683357808866556 true
gene 1 11 1803 1.7368769943509013 false 13075 1.7368769943509013 true
gene 1 1803 45 1.7151263631723115 false 13076 1.7151263631723115 true
gene 1 26 61 0.4144443379689662 false 13279 0.4144443379689662 true
gene 1 59 42 5.97039698900952 false 14040 5.97039698900952 true
gene 1 568 44 -5.818630700102076 false 14179 -5.818630700102076 true
gene 1 40 2022 1 false 14286 0 true
gene 1 2022 59 1.3091361454348491 false 14287 0 true
gene 1 15 2056 1 false 14478 0 true
gene 1 2056 60 -1.2021276474568685 false 14479 0 true
gene 1 3 1198 5.070777580315303 false 14647 5.070777580315303 true
gene 1 131 1082 -2.910652703117222 false 14839 -2.910652703117222 true
gene 1 62 62 -1.0289372216508077 true 14966 -1.0289372216508077 true
gene 1 15 47 0.34857973143967075 false 15115 0.34857973143967075 true
gene 1 2056 131 9.349993304381826 false 15537 9.349993304381826 true
gene 1 62 2267 1 true 15695 0 true
gene 1 2267 62 -1.0289372216508077 false 15696 0 true
gene 1 16 448 -1.174618725077183 false 15853 -1.174618725077183 true
genomeend 217
